~o
<STREAMINFO> 1 25
<VECSIZE> 25<NULLD><MFCC_D_N_Z_0><DIAGC>
~s "silst3"
<NUMMIXES> 9
<MIXTURE> 1 9.552903e-02
<MEAN> 25
 -2.813495e+00 -2.305463e+00 -1.847067e+00 6.191339e+00 9.892813e+00 4.136081e+00 8.746483e+00 8.351678e+00 6.573431e+00 3.187275e+00 4.116756e+00 6.370240e+00 -1.611592e-02 -1.162676e+00 -4.652719e-04 -1.704610e-01 -2.817802e-01 -8.957101e-01 -6.399210e-01 5.042677e-01 1.575246e-01 -3.751553e-01 1.834215e-01 1.154654e-01 8.650876e-01
<VARIANCE> 25
 5.164685e+00 1.371279e+01 1.268465e+01 1.523342e+01 1.709397e+01 2.232544e+01 2.558049e+01 2.067265e+01 2.292999e+01 2.089790e+01 2.447414e+01 1.684245e+01 3.735348e-01 8.273955e-01 7.883091e-01 1.020937e+00 1.460258e+00 1.431444e+00 1.759172e+00 1.821450e+00 1.955166e+00 1.737558e+00 1.509212e+00 1.442939e+00 2.809728e-01
<GCONST> 8.112184e+01
<MIXTURE> 2 1.161529e-01
<MEAN> 25
 -5.940408e+00 -4.067291e+00 6.287202e+00 4.149546e+00 4.037044e+00 4.976348e+00 1.088130e+01 7.173075e+00 2.876398e+00 3.091158e+00 1.110942e+01 2.325007e+00 1.174821e-01 2.696340e-02 4.874931e-02 -6.922989e-02 -8.032691e-02 1.037088e-01 -1.123541e-01 -1.281601e-01 6.991492e-02 8.259063e-02 -5.941250e-02 1.788022e-01 -1.047119e-01
<VARIANCE> 25
 6.602127e+00 7.920010e+00 9.376106e+00 1.548940e+01 1.548190e+01 2.149997e+01 2.010904e+01 2.868610e+01 2.424905e+01 2.067317e+01 2.244722e+01 1.982298e+01 2.125130e-01 3.257767e-01 4.353396e-01 6.730825e-01 9.549245e-01 1.107100e+00 1.291152e+00 1.314191e+00 1.492119e+00 1.335004e+00 1.203363e+00 1.255263e+00 2.098384e-01
<GCONST> 7.558931e+01
<MIXTURE> 3 1.382369e-01
<MEAN> 25
 -4.206284e+00 -4.617040e+00 2.230582e+00 6.038884e+00 6.183784e+00 1.473523e+00 1.006830e+01 8.688849e+00 3.903952e+00 1.273785e+00 8.103602e+00 6.900853e+00 3.448671e-02 -1.529838e-02 -9.053201e-02 2.152605e-01 4.172581e-01 6.256949e-01 4.656506e-01 2.202837e-01 -4.465997e-02 -3.522443e-01 -5.380513e-01 -2.745068e-01 -1.770864e-01
<VARIANCE> 25
 8.043258e+00 9.167239e+00 9.628469e+00 1.258578e+01 1.440908e+01 1.706962e+01 2.168621e+01 1.896990e+01 1.746274e+01 2.113376e+01 2.765961e+01 1.875721e+01 1.604457e-01 3.436074e-01 4.149857e-01 5.590783e-01 7.423614e-01 8.299301e-01 9.549855e-01 1.202673e+00 1.277130e+00 1.291871e+00 1.126426e+00 1.121329e+00 1.301103e-01
<GCONST> 7.272189e+01
<MIXTURE> 4 7.147419e-02
<MEAN> 25
 -2.537699e+00 -3.400644e+00 -2.270287e-01 9.296340e+00 1.155640e+01 5.431777e+00 6.615812e+00 1.187254e+01 9.013559e+00 -5.289568e-01 5.473573e+00 3.621693e+00 1.123608e-01 1.162382e-01 -2.203921e-01 -2.051278e-02 2.521245e-01 3.379262e-01 1.075787e-02 -1.784301e-01 9.806615e-03 2.687673e-02 -2.168439e-01 -1.312532e-01 -1.179132e-01
<VARIANCE> 25
 4.177321e+00 6.036058e+00 1.145079e+01 9.188887e+00 1.380936e+01 2.127646e+01 2.635139e+01 1.736270e+01 2.098448e+01 2.199057e+01 2.535267e+01 1.866440e+01 1.264786e-01 2.390033e-01 3.921951e-01 6.007623e-01 7.339073e-01 9.469684e-01 1.084439e+00 1.200018e+00 1.272203e+00 1.619989e+00 1.110708e+00 1.135421e+00 1.126525e-01
<GCONST> 7.165985e+01
<MIXTURE> 5 1.252117e-01
<MEAN> 25
 -3.002228e+00 -2.273031e+00 2.196363e+00 8.497792e+00 7.699476e+00 4.054698e+00 1.074820e+01 9.180379e+00 4.294055e+00 1.612630e+00 8.666986e+00 4.493336e+00 -1.537589e-01 -4.094383e-01 2.026889e-01 -1.731990e-01 -2.755521e-01 -3.346958e-01 -1.375960e-01 1.235985e-01 2.882989e-02 2.818825e-02 3.378718e-01 7.899754e-02 3.498296e-01
<VARIANCE> 25
 3.963949e+00 9.125760e+00 1.024917e+01 1.325181e+01 1.402541e+01 1.958935e+01 1.889834e+01 2.247485e+01 1.794810e+01 2.158196e+01 2.298237e+01 1.887513e+01 9.871811e-02 2.511028e-01 3.648023e-01 5.016364e-01 6.595127e-01 7.814159e-01 9.487304e-01 9.672529e-01 9.936020e-01 1.249476e+00 1.225768e+00 1.009914e+00 9.373129e-02
<GCONST> 7.006377e+01
<MIXTURE> 6 1.290526e-01
<MEAN> 25
 -3.988858e+00 -5.155727e+00 -1.146975e+00 4.559803e+00 7.565953e+00 1.371543e+00 8.214423e+00 9.166024e+00 6.546939e+00 2.447043e+00 4.105480e+00 8.120206e+00 9.661710e-02 1.950767e-01 2.430763e-01 1.137878e-01 -1.366855e-01 -2.915018e-01 -5.965098e-01 -8.164551e-01 -5.704193e-01 -1.036298e-01 1.954991e-01 2.394288e-01 2.031039e-02
<VARIANCE> 25
 7.510786e+00 8.216121e+00 1.245766e+01 1.158441e+01 1.791756e+01 1.776043e+01 2.164886e+01 1.868245e+01 2.112110e+01 1.914232e+01 2.881134e+01 1.658304e+01 9.726784e-02 2.384229e-01 2.948764e-01 4.570003e-01 6.313018e-01 7.963011e-01 8.178923e-01 9.006380e-01 9.999740e-01 1.202032e+00 1.086660e+00 9.900942e-01 1.063270e-01
<GCONST> 7.023219e+01
<MIXTURE> 7 1.037820e-01
<MEAN> 25
 -3.999785e+00 -5.456181e+00 -2.767803e+00 4.229724e+00 9.222731e+00 2.157102e+00 7.653378e+00 9.554032e+00 8.148919e+00 3.758217e+00 3.423543e+00 7.500926e+00 -7.572078e-02 -1.940381e-01 -2.731822e-01 -3.551507e-01 -2.984788e-01 -3.854867e-02 2.874679e-01 6.824205e-01 9.391878e-01 7.599302e-01 3.299431e-01 6.680522e-02 2.335811e-02
<VARIANCE> 25
 7.101583e+00 8.996950e+00 1.485331e+01 1.356790e+01 1.837114e+01 1.861443e+01 2.436220e+01 2.136677e+01 2.145984e+01 2.259272e+01 2.590344e+01 1.943883e+01 1.158007e-01 2.812138e-01 3.373876e-01 5.228561e-01 7.372541e-01 8.307863e-01 1.001404e+00 9.687045e-01 9.906662e-01 1.144354e+00 1.145797e+00 1.187008e+00 1.181685e-01
<GCONST> 7.252237e+01
<MIXTURE> 8 1.161922e-01
<MEAN> 25
 -3.408497e+00 -6.149017e+00 -4.139310e+00 2.303881e+00 8.403334e+00 1.250698e+00 4.401143e+00 8.201003e+00 7.801168e+00 3.953815e+00 1.926619e+00 6.146928e+00 7.004078e-02 4.704838e-02 8.406676e-02 2.531147e-01 3.119936e-01 3.381237e-01 1.331615e-01 -2.174100e-01 -4.147069e-01 -6.452594e-01 -6.062510e-01 -3.432230e-01 -4.612651e-02
<VARIANCE> 25
 6.506817e+00 9.816945e+00 1.240808e+01 1.130366e+01 1.927540e+01 1.935680e+01 1.905331e+01 2.680961e+01 2.329118e+01 1.882085e+01 1.657165e+01 1.834965e+01 1.768444e-01 3.094123e-01 3.969635e-01 5.543106e-01 7.797014e-01 9.429076e-01 1.129207e+00 1.123144e+00 1.217867e+00 1.176644e+00 1.010198e+00 1.132311e+00 1.735367e-01
<GCONST> 7.325889e+01
<MIXTURE> 9 1.042576e-01
<MEAN> 25
 -2.817969e+00 -4.873314e+00 -1.903917e+00 2.695207e+00 6.066133e+00 2.373803e-01 4.321236e+00 7.284891e+00 4.338278e+00 1.446852e+00 1.684086e+00 6.183249e+00 -3.481544e-02 -1.775198e-01 -1.256844e-01 -2.342545e-01 -2.810669e-01 -1.455786e-01 3.394022e-02 2.949039e-01 3.806156e-01 3.574399e-01 3.169450e-01 1.901404e-01 9.429896e-02
<VARIANCE> 25
 6.768867e+00 9.592837e+00 1.084525e+01 9.656586e+00 1.406855e+01 1.776854e+01 1.528718e+01 2.013025e+01 1.900754e+01 1.485440e+01 1.475941e+01 1.568529e+01 1.154061e-01 2.240176e-01 2.961725e-01 5.042983e-01 6.379290e-01 8.807362e-01 9.429920e-01 1.016580e+00 9.663844e-01 9.513467e-01 1.050381e+00 1.069301e+00 1.029385e-01
<GCONST> 6.869293e+01
~h "A"
<BEGINHMM>
<NUMSTATES> 5
<STATE> 2
<NUMMIXES> 9
<MIXTURE> 1 1.409819e-01
<MEAN> 25
 5.023570e+00 -4.978181e+00 2.318272e+00 -5.480746e+00 -9.498356e+00 -1.061418e+01 -9.775226e+00 2.490083e+00 -7.639131e-01 -1.165618e+00 -3.512188e+00 -5.717077e-01 5.707956e-01 -2.203682e+00 -6.518745e-01 -1.703550e+00 -1.474883e+00 1.486362e-01 2.966946e-01 2.303724e+00 1.958325e-01 1.082778e+00 -2.033374e-01 -1.660705e-02 1.483432e+00
<VARIANCE> 25
 8.715343e+00 1.689783e+01 2.319295e+01 2.872729e+01 3.044772e+01 2.784950e+01 4.995477e+01 3.415791e+01 3.887004e+01 3.516791e+01 3.569549e+01 3.197748e+01 1.167482e+00 1.799453e+00 3.891347e+00 2.312668e+00 3.814939e+00 3.735842e+00 6.664641e+00 4.360787e+00 4.184311e+00 3.548703e+00 4.208908e+00 3.063543e+00 7.942535e-01
<GCONST> 9.987646e+01
<MIXTURE> 2 1.054027e-01
<MEAN> 25
 6.604072e+00 -6.007860e+00 -1.128900e+01 -1.335213e+01 2.255679e+00 1.667090e+00 -9.499932e+00 6.002393e-01 3.893584e+00 1.171222e+00 -8.586123e+00 -8.440663e+00 -2.826237e-01 -2.950536e+00 -1.168151e+00 -4.564011e-01 2.076607e-01 2.328326e+00 9.362192e-01 2.587055e+00 6.930656e-01 -1.797967e+00 -2.131953e+00 -6.547920e-01 1.525890e+00
<VARIANCE> 25
 5.570539e+00 1.454326e+01 1.523462e+01 2.635833e+01 3.006334e+01 3.587669e+01 3.703090e+01 3.363137e+01 3.291727e+01 3.705995e+01 2.926901e+01 1.895250e+01 3.523391e-01 1.089066e+00 1.460611e+00 2.237255e+00 1.745847e+00 2.577203e+00 3.160476e+00 3.329729e+00 4.425426e+00 2.492092e+00 2.511011e+00 1.915915e+00 4.433856e-01
<GCONST> 9.111437e+01
<MIXTURE> 3 1.167526e-01
<MEAN> 25
 7.913475e+00 -4.682024e+00 -6.597924e+00 -1.501037e+01 -3.580467e+00 5.682254e+00 -1.160866e+01 -4.235629e+00 1.937598e+00 5.670464e+00 2.335868e+00 -9.571555e+00 3.466175e-01 -2.593806e+00 -1.269354e+00 -1.166532e+00 -1.037193e+00 1.586984e+00 -6.439170e-01 2.621360e+00 2.784592e+00 6.355508e-01 -9.074781e-01 -2.470044e+00 1.551849e+00
<VARIANCE> 25
 6.054396e+00 1.384211e+01 1.975131e+01 2.961165e+01 2.290077e+01 3.304451e+01 3.846907e+01 2.742596e+01 3.053829e+01 2.828185e+01 2.986071e+01 2.529349e+01 9.273922e-01 1.402621e+00 1.923513e+00 4.304486e+00 2.934515e+00 5.320729e+00 3.915969e+00 3.370658e+00 3.889094e+00 2.576948e+00 2.773290e+00 2.227247e+00 6.094593e-01
<GCONST> 9.506098e+01
<MIXTURE> 4 8.554610e-02
<MEAN> 25
 5.811204e+00 -1.129291e+01 -3.281871e+00 -9.057233e+00 -6.846366e+00 -3.337919e+00 -4.521797e+00 8.412596e+00 -2.789651e-01 -3.805166e+00 -9.813793e+00 -3.233158e+00 1.549782e-01 -2.452142e+00 -2.649415e+00 -7.902988e-01 1.770752e+00 2.502925e+00 1.595262e+00 1.233357e+00 -4.845977e-01 -4.991031e-01 -1.799409e+00 -8.683781e-01 1.230292e+00
<VARIANCE> 25
 6.944660e+00 1.470621e+01 1.756333e+01 2.227028e+01 3.198625e+01 3.253988e+01 4.016541e+01 2.113730e+01 4.327047e+01 3.258904e+01 2.583431e+01 3.277821e+01 5.176604e-01 2.154999e+00 2.134918e+00 2.411859e+00 2.884406e+00 2.972360e+00 4.177606e+00 4.128841e+00 3.681447e+00 2.501801e+00 2.538113e+00 2.860814e+00 7.029535e-01
<GCONST> 9.482194e+01
<MIXTURE> 5 9.299875e-02
<MEAN> 25
 6.782767e+00 -1.457006e+00 -6.781490e+00 -1.038889e+01 -1.637210e+00 -2.542790e+00 -4.876750e+00 -7.412950e+00 3.040785e+00 6.169199e+00 -1.600420e+00 -5.310470e+00 -1.470964e-01 -5.632573e-01 -5.555878e-01 3.003790e-01 -2.225993e-01 -4.043221e-01 3.475611e-01 7.696999e-01 1.556035e+00 2.306289e-02 -9.139015e-01 -5.012895e-01 4.873225e-01
<VARIANCE> 25
 1.100186e+01 1.716815e+01 3.132410e+01 5.783496e+01 3.719350e+01 5.829871e+01 6.923140e+01 6.100797e+01 4.900937e+01 4.315206e+01 4.494827e+01 2.199570e+01 4.349801e-01 7.655814e-01 1.636561e+00 2.408085e+00 2.321212e+00 2.414965e+00 2.848209e+00 2.613813e+00 2.261711e+00 1.726932e+00 1.846630e+00 1.815272e+00 2.892462e-01
<GCONST> 9.460802e+01
<MIXTURE> 6 1.176317e-01
<MEAN> 25
 5.034128e+00 -3.769438e+00 -5.963005e+00 -7.643553e+00 -1.175224e+00 -1.023017e+01 -1.087440e+01 2.063426e+00 5.059424e+00 -1.723125e+00 -1.006596e+01 -1.523090e+00 -5.363516e-01 -2.019446e+00 5.043922e-01 -6.621639e-01 -1.692923e+00 -5.757940e-01 1.752614e+00 3.658175e+00 -1.789213e-01 -1.489880e+00 -9.302563e-01 1.415729e+00 1.400305e+00
<VARIANCE> 25
 7.469565e+00 1.215659e+01 1.420353e+01 2.586872e+01 2.805067e+01 2.934820e+01 4.032782e+01 3.662395e+01 2.844809e+01 5.333049e+01 2.971813e+01 3.472711e+01 4.779677e-01 9.144049e-01 1.498142e+00 2.558077e+00 2.812523e+00 2.626733e+00 3.165610e+00 3.499099e+00 3.302494e+00 3.077030e+00 3.631937e+00 1.899366e+00 4.693074e-01
<GCONST> 9.305090e+01
<MIXTURE> 7 1.093041e-01
<MEAN> 25
 4.698290e+00 -1.066661e+01 -1.124015e+01 -9.596785e+00 4.423645e+00 -1.372311e+00 -4.337804e+00 1.174377e+00 1.908673e-02 -9.022829e+00 -9.399842e+00 -3.651058e+00 -3.675481e-01 -2.598981e+00 -1.056611e+00 -2.740789e-01 2.197664e+00 2.540944e+00 9.890052e-01 -7.357281e-02 -4.417264e-01 -1.722777e+00 1.761039e-01 2.113572e-01 1.167328e+00
<VARIANCE> 25
 8.720642e+00 1.680047e+01 1.911193e+01 3.537302e+01 4.831260e+01 5.114172e+01 4.843766e+01 3.965238e+01 5.491851e+01 4.152604e+01 3.322311e+01 3.990710e+01 6.532164e-01 1.694922e+00 2.224579e+00 2.855782e+00 3.618484e+00 2.935139e+00 4.307801e+00 4.620956e+00 3.086041e+00 3.295141e+00 3.551290e+00 3.307965e+00 5.493879e-01
<GCONST> 9.923355e+01
<MIXTURE> 8 1.127571e-01
<MEAN> 25
 7.211869e+00 -6.068570e+00 -5.568224e+00 -6.342223e+00 -7.730236e+00 -2.964175e+00 -9.641613e+00 -4.902388e+00 8.063366e+00 1.120984e+00 5.234214e-01 -1.044756e+01 3.881026e-01 -2.125861e+00 -1.675786e+00 -8.669931e-01 -1.601623e+00 9.023755e-01 5.558823e-01 1.930173e+00 2.898909e+00 -6.818661e-01 -5.791078e-02 -1.919294e+00 1.528142e+00
<VARIANCE> 25
 6.710893e+00 1.713999e+01 3.099511e+01 2.063662e+01 2.775490e+01 4.393379e+01 4.614370e+01 5.740031e+01 2.958704e+01 2.716974e+01 2.856314e+01 2.464720e+01 9.285613e-01 1.231820e+00 2.727388e+00 1.999631e+00 3.489109e+00 4.329630e+00 4.802369e+00 5.016246e+00 3.894341e+00 2.409263e+00 2.451057e+00 2.529231e+00 5.206087e-01
<GCONST> 9.652522e+01
<MIXTURE> 9 1.186263e-01
<MEAN> 25
 6.896734e+00 -5.809417e+00 -7.249876e+00 -1.235355e+01 -2.835520e+00 3.153894e+00 -9.953576e+00 -3.919806e+00 5.967600e+00 4.482207e+00 -5.568954e-01 -1.124892e+01 -3.120526e-01 -1.398669e+00 -1.325210e-01 7.209215e-01 -6.704545e-01 -4.162655e-01 2.519009e-01 1.791108e+00 1.855367e+00 -6.979265e-01 -1.635607e+00 -9.691247e-01 7.577400e-01
<VARIANCE> 25
 6.704252e+00 1.546363e+01 2.021700e+01 2.424200e+01 2.375534e+01 3.597368e+01 4.802385e+01 3.446153e+01 3.119342e+01 2.741595e+01 3.510907e+01 2.222953e+01 1.592896e-01 4.070300e-01 8.175221e-01 1.309965e+00 1.171316e+00 1.995071e+00 1.504041e+00 1.807174e+00 1.843858e+00 1.638773e+00 1.447584e+00 1.530481e+00 1.291138e-01
<GCONST> 8.339171e+01
<STATE> 3
<NUMMIXES> 9
<MIXTURE> 1 7.566690e-02
<MEAN> 25
 3.953207e+00 -4.978956e+00 -2.043727e+00 -6.980114e+00 -4.743987e+00 -8.358371e+00 -7.048656e+00 -1.029055e+00 5.829223e-01 7.422813e-01 -1.285554e+00 -2.018402e-02 -6.257173e-03 -7.508298e-02 4.470405e-01 6.052808e-01 -7.397190e-01 8.415791e-02 3.833643e-01 2.967619e-01 -5.447317e-02 -9.461438e-02 9.669379e-02 3.455206e-01 -1.652864e-01
<VARIANCE> 25
 1.793317e+01 3.635797e+01 4.462414e+01 3.992319e+01 5.952238e+01 5.229641e+01 8.456075e+01 5.942416e+01 4.809140e+01 6.136133e+01 8.195932e+01 9.714470e+01 1.119412e+00 1.736862e+00 3.500735e+00 4.032010e+00 5.772848e+00 4.364762e+00 4.686944e+00 4.402192e+00 4.043626e+00 5.183283e+00 4.877006e+00 3.611437e+00 7.179163e-01
<GCONST> 1.085955e+02
<MIXTURE> 2 1.362254e-01
<MEAN> 25
 6.566514e+00 -5.997144e+00 -4.018857e+00 -7.750770e+00 -5.981936e+00 -2.143355e+00 -1.156328e+01 -6.784739e-01 6.786654e+00 2.804192e+00 -2.307211e+00 -8.670409e+00 -1.040021e-01 -3.716809e-01 5.634159e-01 6.790058e-01 -5.785872e-01 -7.326953e-01 -1.226535e-01 8.331529e-01 2.094936e-01 -5.814570e-01 -4.339066e-01 5.498444e-01 6.631406e-02
<VARIANCE> 25
 6.579820e+00 1.633687e+01 1.933107e+01 2.664972e+01 2.544067e+01 3.754573e+01 4.273533e+01 4.682672e+01 3.048712e+01 2.858170e+01 3.750558e+01 2.731112e+01 1.625780e-01 4.261795e-01 7.045574e-01 9.660685e-01 1.039906e+00 1.582023e+00 1.228205e+00 1.981468e+00 1.074061e+00 1.256895e+00 1.059925e+00 1.123514e+00 1.231066e-01
<GCONST> 8.174716e+01
<MIXTURE> 3 1.050092e-01
<MEAN> 25
 8.054653e+00 -8.599808e+00 -7.567008e+00 -1.265156e+01 -4.361062e+00 6.053229e+00 -7.910837e+00 -5.340379e-02 4.261192e+00 2.364941e+00 -2.055714e+00 -1.194261e+01 3.743618e-01 -7.366568e-01 -6.004765e-01 1.180131e-01 4.292633e-02 1.087101e+00 4.966016e-01 3.024205e-01 -1.897170e-01 -6.217517e-01 -1.859838e-01 -3.694503e-01 -3.654524e-02
<VARIANCE> 25
 7.160435e+00 1.625395e+01 1.662861e+01 3.297043e+01 3.086765e+01 5.162436e+01 3.558780e+01 3.346903e+01 2.948428e+01 3.051105e+01 3.346976e+01 2.494898e+01 2.013825e-01 7.632177e-01 9.823024e-01 1.617058e+00 1.888388e+00 2.319965e+00 1.891077e+00 1.921664e+00 2.405379e+00 1.844256e+00 2.223137e+00 1.756585e+00 1.646431e-01
<GCONST> 8.740203e+01
<MIXTURE> 4 9.877175e-02
<MEAN> 25
 6.021961e+00 -1.337496e+01 -1.028889e+01 -5.925386e+00 2.178873e+00 2.410578e+00 -3.812998e+00 1.009275e+00 -4.693429e-01 -6.629287e+00 -9.703575e+00 -4.760493e+00 3.381029e-01 -3.910234e-01 -1.058144e+00 4.645819e-01 1.462064e+00 1.426950e+00 -3.965861e-01 -1.555606e+00 -2.104328e-01 4.601082e-01 5.672804e-01 -8.559031e-01 -2.367040e-01
<VARIANCE> 25
 7.383283e+00 2.071081e+01 1.995251e+01 3.557843e+01 4.490664e+01 3.852823e+01 4.145648e+01 3.755708e+01 5.011831e+01 4.114960e+01 3.312477e+01 3.695080e+01 3.035363e-01 9.034202e-01 1.114462e+00 1.812281e+00 2.256968e+00 2.011795e+00 2.543506e+00 2.270545e+00 2.625608e+00 2.618529e+00 2.105114e+00 1.739581e+00 2.289683e-01
<GCONST> 9.151736e+01
<MIXTURE> 5 1.268795e-01
<MEAN> 25
 4.251580e+00 -5.857164e+00 -1.811895e+00 -6.779893e+00 -6.385310e+00 -1.042658e+01 -6.043650e+00 5.066053e+00 1.095379e+00 -3.397727e+00 -7.766459e+00 5.858790e-01 -1.955733e-01 -7.030543e-01 1.003456e+00 -1.431693e-01 -1.149089e+00 2.165720e-01 8.807194e-01 6.360958e-01 -1.042253e+00 -1.543574e-01 5.242683e-01 3.294255e-01 2.821877e-01
<VARIANCE> 25
 7.280964e+00 1.348182e+01 2.272565e+01 2.334963e+01 3.464360e+01 2.783308e+01 4.122362e+01 3.306081e+01 3.765516e+01 4.242101e+01 3.818939e+01 2.783995e+01 2.267546e-01 5.235605e-01 1.300424e+00 1.047938e+00 1.734989e+00 1.475213e+00 2.047295e+00 1.856544e+00 1.817010e+00 1.870322e+00 1.495747e+00 1.742444e+00 1.606856e-01
<GCONST> 8.604792e+01
<MIXTURE> 6 9.806509e-02
<MEAN> 25
 3.693234e+00 -1.545460e+01 -1.083338e+01 -8.868925e+00 9.720407e+00 3.423272e+00 -6.522554e+00 -3.817607e+00 -1.519814e+00 -9.116828e+00 -6.760239e+00 -2.067695e+00 -7.108235e-02 -9.598174e-01 4.609610e-01 6.781723e-01 -2.450893e-01 5.863209e-01 2.914013e-01 -3.939721e-01 -2.781920e-01 -5.788530e-02 3.266089e-01 5.722477e-01 1.446223e-01
<VARIANCE> 25
 7.020957e+00 1.361843e+01 1.579127e+01 3.802396e+01 4.493881e+01 4.639662e+01 4.739225e+01 3.183196e+01 2.349489e+01 3.411769e+01 3.923973e+01 4.528414e+01 2.480603e-01 9.371053e-01 6.653837e-01 1.030328e+00 2.092174e+00 2.066329e+00 1.464756e+00 1.857380e+00 1.724836e+00 1.733706e+00 1.471998e+00 1.578544e+00 1.293122e-01
<GCONST> 8.655691e+01
<MIXTURE> 7 1.314219e-01
<MEAN> 25
 6.634855e+00 -9.777478e+00 -1.160493e+01 -8.646540e+00 1.156597e-01 2.830048e+00 -9.926514e-01 -4.582820e+00 5.542177e+00 -2.624082e+00 -4.466923e+00 -1.090836e+01 5.535897e-02 -1.649504e-01 1.741405e-01 4.356647e-01 -1.957223e-01 -4.052951e-01 -1.599181e-02 4.713752e-01 -1.291928e-01 -1.273258e-01 -3.934835e-01 1.483747e-01 -1.537506e-01
<VARIANCE> 25
 9.526212e+00 2.186205e+01 1.883976e+01 3.798972e+01 3.270515e+01 3.333236e+01 3.367658e+01 3.202295e+01 4.009064e+01 4.253395e+01 3.401054e+01 3.220712e+01 1.607401e-01 5.876629e-01 5.401000e-01 7.657223e-01 9.282415e-01 1.077464e+00 1.092053e+00 1.184180e+00 1.071480e+00 1.316930e+00 1.029002e+00 8.384937e-01 1.226132e-01
<GCONST> 8.138945e+01
<MIXTURE> 8 1.344120e-01
<MEAN> 25
 6.674903e+00 -1.272469e+01 -9.978990e+00 -8.894332e+00 2.243258e+00 6.358191e+00 -8.589952e+00 3.287158e+00 -2.358836e+00 -1.031856e+00 -1.127217e+01 -6.325609e+00 -2.260672e-02 -7.357242e-01 3.253588e-01 7.138404e-01 -6.073585e-01 3.353400e-02 2.951321e-01 3.032229e-01 -4.175324e-01 -4.853639e-01 -1.917665e-01 2.140659e-01 6.421088e-02
<VARIANCE> 25
 5.791324e+00 2.532159e+01 2.024357e+01 3.114329e+01 2.687809e+01 3.216567e+01 3.154064e+01 2.336588e+01 2.710246e+01 3.735425e+01 2.200179e+01 1.784744e+01 1.289456e-01 7.318884e-01 7.306460e-01 1.024437e+00 1.218546e+00 1.996800e+00 1.557038e+00 1.539887e+00 1.278621e+00 1.541527e+00 1.299829e+00 1.070749e+00 1.120410e-01
<GCONST> 8.157298e+01
<MIXTURE> 9 9.354202e-02
<MEAN> 25
 7.076576e+00 -9.507898e+00 -1.185911e+01 -1.142984e+01 -2.852939e+00 5.375916e+00 -5.456123e+00 -2.490022e+00 4.672215e+00 -1.207034e+00 -3.558549e+00 -1.349215e+01 -4.211222e-01 -5.937892e-01 -1.546746e-01 6.662586e-01 1.990578e-01 -9.564136e-01 5.289590e-01 5.233132e-01 2.621135e-01 -5.880876e-01 -1.061446e+00 -2.742149e-03 3.360488e-01
<VARIANCE> 25
 7.937991e+00 1.656964e+01 2.172056e+01 3.368384e+01 3.789511e+01 5.454007e+01 4.394198e+01 3.740625e+01 4.872262e+01 2.617513e+01 3.226936e+01 1.772560e+01 3.090800e-01 1.188286e+00 1.495708e+00 1.481064e+00 2.154128e+00 3.895617e+00 2.905188e+00 2.162970e+00 2.671061e+00 2.335211e+00 2.116244e+00 1.674393e+00 2.384691e-01
<GCONST> 9.138108e+01
<STATE> 4
<NUMMIXES> 9
<MIXTURE> 1 5.018695e-02
<MEAN> 25
 1.524127e+00 1.498669e-01 -4.688648e+00 8.983094e-01 7.475118e+00 2.932640e+00 5.587502e+00 5.137762e+00 4.457132e+00 2.808906e+00 -3.745652e+00 -2.551732e-01 -7.533237e-01 2.646380e-01 3.287549e-01 6.993583e-01 2.792831e-01 2.966330e-01 8.290591e-01 5.405489e-01 4.600847e-01 1.353177e-01 6.642296e-01 8.268801e-01 -1.125939e+00
<VARIANCE> 25
 9.016928e+00 2.152218e+01 1.237923e+01 2.951240e+01 3.075582e+01 3.130960e+01 2.580806e+01 4.469391e+01 3.367878e+01 3.652699e+01 4.493007e+01 4.158360e+01 7.238095e-01 1.736730e+00 1.229566e+00 2.053872e+00 2.385843e+00 2.289094e+00 2.482095e+00 2.583183e+00 2.409522e+00 2.776225e+00 2.620836e+00 2.722235e+00 1.543988e+00
<GCONST> 9.469505e+01
<MIXTURE> 2 1.470305e-01
<MEAN> 25
 6.176886e+00 -9.165040e+00 -7.330842e+00 -8.801574e+00 -4.807759e+00 -5.294697e-01 -7.067369e+00 1.440156e+00 6.000083e+00 -4.425439e-01 -6.464107e+00 -9.185110e+00 5.528262e-01 -3.454179e-01 1.375055e+00 1.446795e+00 -1.794860e+00 -3.693907e-01 -1.488211e+00 4.393544e-01 -1.995875e-01 1.033975e-01 7.338029e-02 1.046805e+00 -6.997030e-01
<VARIANCE> 25
 8.413468e+00 1.942198e+01 2.535927e+01 2.512866e+01 2.468028e+01 4.730439e+01 4.519874e+01 4.816421e+01 3.088468e+01 4.334498e+01 3.689782e+01 3.285371e+01 3.068702e-01 7.802305e-01 9.805376e-01 1.565794e+00 1.943309e+00 2.888465e+00 2.427019e+00 2.959797e+00 2.185334e+00 2.013880e+00 1.866380e+00 1.676181e+00 1.864026e-01
<GCONST> 9.018693e+01
<MIXTURE> 3 1.195258e-01
<MEAN> 25
 7.921775e+00 -5.590126e+00 -5.375192e+00 -7.561790e+00 -4.278484e+00 -3.035884e-01 -9.155333e+00 -1.916417e+00 5.102050e+00 3.374747e+00 -2.860621e+00 -8.463272e+00 -1.196216e-02 1.204321e+00 4.442072e-01 1.278470e+00 6.982316e-01 -7.464955e-01 7.848644e-02 -8.102309e-01 -5.715720e-01 7.571565e-03 -3.316697e-01 8.657950e-01 -1.200520e+00
<VARIANCE> 25
 6.832374e+00 2.115373e+01 3.276822e+01 2.786929e+01 2.938923e+01 4.759335e+01 6.108935e+01 5.942689e+01 3.432905e+01 3.354634e+01 4.629262e+01 2.930072e+01 3.641971e-01 9.256985e-01 1.238316e+00 1.761445e+00 1.470254e+00 2.059950e+00 2.185103e+00 2.394842e+00 2.030810e+00 1.524796e+00 1.779286e+00 1.340959e+00 4.908848e-01
<GCONST> 9.118336e+01
<MIXTURE> 4 1.510749e-01
<MEAN> 25
 3.945421e+00 -5.603804e+00 1.550985e+00 -5.693048e+00 -9.981408e+00 -1.022849e+01 -6.332575e+00 3.565404e+00 -1.535378e+00 -2.115621e+00 -4.047374e+00 5.544519e-02 -9.883213e-02 2.525996e-01 1.551384e+00 4.986360e-01 -8.659881e-01 9.107760e-02 -8.834017e-02 -8.005406e-01 -8.443033e-01 -8.325924e-02 9.209770e-01 1.980697e-01 -4.822497e-01
<VARIANCE> 25
 7.370028e+00 1.628575e+01 2.224461e+01 2.375276e+01 2.999746e+01 2.553384e+01 4.947694e+01 3.749327e+01 4.260577e+01 4.215307e+01 3.797653e+01 3.245387e+01 4.719885e-01 1.093457e+00 1.860617e+00 1.300209e+00 2.031111e+00 2.118670e+00 2.564056e+00 2.366559e+00 2.781445e+00 2.601108e+00 1.987000e+00 1.782466e+00 3.197548e-01
<GCONST> 9.136901e+01
<MIXTURE> 5 1.520292e-01
<MEAN> 25
 6.825816e+00 -4.953012e+00 -5.722732e+00 -5.513647e+00 -3.323627e+00 -2.775135e+00 -7.645474e+00 -4.042729e-01 3.351451e+00 3.958920e-01 -4.946582e+00 -6.543000e+00 -1.067020e+00 2.017322e+00 1.899742e+00 1.913849e+00 3.510670e-01 -9.470932e-01 1.005871e+00 3.231143e-01 -6.573502e-01 -2.411409e-01 -7.902000e-02 1.916232e+00 -1.862327e+00
<VARIANCE> 25
 8.496964e+00 2.982417e+01 3.324472e+01 3.346921e+01 4.151946e+01 4.565961e+01 5.463294e+01 5.323090e+01 4.469930e+01 5.378635e+01 4.708736e+01 4.803915e+01 1.603590e+00 2.600343e+00 2.883846e+00 2.564298e+00 4.456783e+00 4.447394e+00 4.541351e+00 4.829561e+00 5.292717e+00 4.444947e+00 3.775409e+00 3.029711e+00 1.598256e+00
<GCONST> 1.050955e+02
<MIXTURE> 6 9.801917e-02
<MEAN> 25
 6.289749e+00 -1.109645e+01 -8.745554e+00 -4.460910e+00 7.562895e-01 -3.809662e-02 -3.242251e-01 1.109282e-01 -6.356044e-01 -7.993827e+00 -9.984127e+00 -2.448689e+00 4.054405e-02 1.471415e+00 1.291727e+00 6.585692e-01 -1.941292e+00 -1.216863e+00 2.462972e-01 5.785640e-01 -3.721244e-01 -2.464638e-01 6.875473e-01 4.229214e-01 -1.009472e+00
<VARIANCE> 25
 8.051369e+00 1.825747e+01 1.626229e+01 4.164387e+01 4.358491e+01 3.396629e+01 3.003002e+01 3.580984e+01 3.856062e+01 3.597278e+01 2.293390e+01 2.794089e+01 4.536737e-01 1.450420e+00 1.836648e+00 1.435083e+00 1.766058e+00 2.523898e+00 2.761605e+00 3.079401e+00 2.412063e+00 2.727368e+00 1.945960e+00 1.443805e+00 4.490710e-01
<GCONST> 9.173557e+01
<MIXTURE> 7 1.001711e-01
<MEAN> 25
 5.455114e+00 -5.184023e+00 2.423366e-01 -6.698616e+00 -5.717278e+00 -1.094862e+01 -8.616247e+00 1.054289e+00 -3.881929e-01 -1.236935e-01 -6.170856e+00 1.736393e+00 4.167466e-01 2.300589e+00 8.837380e-01 2.489638e+00 3.984275e-01 9.002056e-01 -5.891460e-01 -1.957541e+00 1.413504e-01 -5.141739e-01 8.089070e-01 -7.688267e-01 -2.462524e+00
<VARIANCE> 25
 9.281860e+00 2.125430e+01 3.381191e+01 3.098059e+01 4.193453e+01 3.691048e+01 6.063409e+01 4.247536e+01 4.361749e+01 4.618798e+01 4.844419e+01 3.883329e+01 1.287584e+00 2.243336e+00 2.561998e+00 1.831773e+00 3.756101e+00 3.128233e+00 4.435416e+00 3.407287e+00 3.877051e+00 3.345915e+00 3.319754e+00 2.769686e+00 1.161794e+00
<GCONST> 1.012496e+02
<MIXTURE> 8 1.041044e-01
<MEAN> 25
 4.865297e+00 -1.852127e+01 -8.365314e+00 -4.395660e+00 -7.783715e-03 4.391294e+00 -5.991027e+00 2.439687e+00 -5.984797e+00 -7.267562e+00 -7.606408e+00 -1.360007e+00 9.463681e-02 1.243487e-01 1.114633e+00 -2.236400e-02 -2.446811e+00 -1.170423e+00 8.437339e-01 1.574447e+00 -7.771481e-01 -4.452126e-02 2.252721e-01 8.751752e-01 -3.381265e-01
<VARIANCE> 25
 8.165821e+00 1.497909e+01 2.088956e+01 3.047637e+01 4.264989e+01 3.665647e+01 3.811510e+01 4.304770e+01 3.179559e+01 3.441486e+01 3.632946e+01 4.317850e+01 3.967959e-01 7.619483e-01 1.059465e+00 1.784462e+00 2.631458e+00 2.499460e+00 2.735557e+00 2.356187e+00 2.573562e+00 2.910506e+00 2.274953e+00 2.403679e+00 1.879543e-01
<GCONST> 9.155175e+01
<MIXTURE> 9 7.785318e-02
<MEAN> 25
 7.648045e+00 -7.770976e+00 -1.108381e+01 -1.316027e+01 1.754152e+00 5.708666e+00 -8.564058e+00 -2.500997e+00 9.471512e-03 -1.856145e+00 -2.665536e+00 -8.034548e+00 7.165691e-01 1.061412e+00 1.968888e-01 4.507538e-01 -4.545339e-01 1.870596e-01 2.284977e-01 -1.170758e+00 -1.380815e+00 -2.948648e-02 1.287664e+00 9.917979e-01 -1.213791e+00
<VARIANCE> 25
 8.120451e+00 2.339416e+01 2.336055e+01 4.031094e+01 5.733861e+01 6.289937e+01 4.183946e+01 3.629370e+01 4.848753e+01 6.078105e+01 5.358973e+01 3.691875e+01 3.418420e-01 1.022880e+00 1.386770e+00 2.864748e+00 2.341105e+00 3.310298e+00 2.384307e+00 3.052049e+00 4.148241e+00 4.145784e+00 2.741333e+00 2.658800e+00 3.054106e-01
<GCONST> 9.714218e+01
<TRANSP> 5
 0.000000e+00 1.000000e+00 0.000000e+00 0.000000e+00 0.000000e+00
 0.000000e+00 4.152958e-01 5.847042e-01 0.000000e+00 0.000000e+00
 0.000000e+00 0.000000e+00 6.047079e-01 3.952921e-01 0.000000e+00
 0.000000e+00 0.000000e+00 0.000000e+00 5.685887e-01 4.314112e-01
 0.000000e+00 0.000000e+00 0.000000e+00 0.000000e+00 0.000000e+00
<ENDHMM>
~h "B"
<BEGINHMM>
<NUMSTATES> 5
<STATE> 2
<NUMMIXES> 9
<MIXTURE> 1 1.613663e-01
<MEAN> 25
 -3.326368e+00 3.196806e+00 -9.506050e-01 5.974071e+00 1.068764e+01 8.420890e+00 1.135826e+01 5.474113e+00 4.815169e+00 4.177379e+00 2.317322e+00 4.634001e+00 -1.021901e-01 -1.701002e-02 6.319990e-02 1.417310e-01 2.068298e-01 2.244707e-01 1.393572e-01 -1.317690e-02 -3.306712e-02 -7.865278e-02 -7.157797e-02 -5.719311e-02 -7.986658e-02
<VARIANCE> 25
 4.509799e+00 7.817222e+00 1.086841e+01 1.438452e+01 1.373149e+01 1.340804e+01 1.702691e+01 1.703616e+01 1.879863e+01 1.475015e+01 1.710705e+01 1.503673e+01 1.188709e-01 2.257760e-01 3.828945e-01 5.540925e-01 6.926722e-01 8.848093e-01 1.006049e+00 1.075424e+00 1.235230e+00 1.170833e+00 1.106730e+00 1.043736e+00 5.810040e-02
<GCONST> 6.871066e+01
<MIXTURE> 2 1.024576e-01
<MEAN> 25
 1.097027e+01 6.074939e+00 -1.628693e+00 -4.094182e-01 1.143699e+00 -5.026871e-01 -4.059623e+00 -7.773596e+00 -3.924572e+00 -2.393209e+00 -3.586976e+00 -4.317006e+00 -3.902480e-01 3.219832e+00 1.365471e+00 1.788172e+00 1.400032e+00 -2.902153e-01 2.368698e+00 4.765447e-01 -7.222482e-02 -8.239443e-01 -1.001357e+00 -1.451632e-01 -2.997135e+00
<VARIANCE> 25
 4.868646e+00 1.359276e+01 1.362763e+01 2.380591e+01 1.777079e+01 2.838828e+01 2.534752e+01 2.544126e+01 2.962467e+01 2.643880e+01 3.038766e+01 2.763061e+01 6.748460e-01 1.434777e+00 1.392938e+00 3.085230e+00 3.331103e+00 3.129396e+00 2.711823e+00 2.914892e+00 3.175644e+00 3.350443e+00 3.317934e+00 2.385636e+00 7.988312e-01
<GCONST> 9.205647e+01
<MIXTURE> 3 1.095453e-01
<MEAN> 25
 8.621002e+00 8.804177e+00 3.726150e+00 4.552747e+00 -2.772941e-01 -5.401286e+00 -2.327315e+00 -4.589724e+00 -2.605808e+00 -2.678275e+00 -4.196692e+00 -4.528979e+00 -5.758491e-01 1.996802e+00 7.177932e-02 5.358528e-01 1.680134e+00 7.770389e-01 1.114704e+00 8.671301e-02 3.034553e-01 1.350486e-01 -2.165216e-01 2.236197e-01 -1.769907e+00
<VARIANCE> 25
 6.037643e+00 1.122009e+01 1.152900e+01 1.347070e+01 2.205978e+01 1.816145e+01 1.854653e+01 2.538897e+01 2.520082e+01 2.372457e+01 2.328335e+01 2.522986e+01 6.869764e-01 1.439941e+00 1.275373e+00 1.516932e+00 1.763350e+00 2.029025e+00 2.045405e+00 2.421449e+00 2.299521e+00 2.595569e+00 2.216765e+00 1.968414e+00 5.137911e-01
<GCONST> 8.624249e+01
<MIXTURE> 4 1.525954e-01
<MEAN> 25
 9.100263e+00 -3.302436e-03 5.268536e+00 2.812574e+00 -5.481322e+00 -7.907580e+00 -7.130936e+00 -3.319616e+00 -3.359306e+00 -3.867867e+00 -3.219064e+00 -3.961478e+00 9.863640e-01 3.536927e+00 -9.521717e-01 1.576771e+00 2.754677e+00 1.188176e+00 1.398150e+00 -7.019244e-01 1.055236e+00 2.679645e-01 -4.782539e-01 -9.349822e-01 -3.626616e+00
<VARIANCE> 25
 4.704181e+00 3.179089e+01 1.709067e+01 2.167014e+01 2.555442e+01 2.357513e+01 3.159014e+01 2.795213e+01 2.686300e+01 2.980578e+01 2.850962e+01 2.821001e+01 9.289039e-01 1.705471e+00 1.933379e+00 2.547362e+00 3.409580e+00 2.473058e+00 3.536700e+00 3.734814e+00 3.968963e+00 4.004288e+00 2.737361e+00 2.619657e+00 6.141851e-01
<GCONST> 9.444453e+01
<MIXTURE> 5 1.248278e-01
<MEAN> 25
 -2.833712e+00 3.573261e+00 -6.012645e-01 6.362200e+00 9.707433e+00 7.798988e+00 1.023587e+01 5.043634e+00 4.628311e+00 3.741809e+00 2.723685e+00 4.083173e+00 5.755752e-01 -7.216340e-02 5.152929e-01 2.225767e-01 -1.032548e+00 -1.565838e+00 -1.603077e+00 -1.305686e+00 -1.236792e+00 -1.247177e+00 -8.591128e-01 -9.165790e-01 1.635497e+00
<VARIANCE> 25
 8.294210e+00 1.062978e+01 1.311090e+01 1.831689e+01 2.244728e+01 2.377706e+01 2.358792e+01 2.033861e+01 2.238857e+01 1.935695e+01 2.117223e+01 1.656581e+01 1.332600e+00 2.630841e+00 1.639188e+00 1.674969e+00 2.629714e+00 2.632612e+00 2.337680e+00 2.616505e+00 2.452775e+00 2.297983e+00 2.122289e+00 1.937986e+00 2.387978e+00
<GCONST> 9.031630e+01
<MIXTURE> 6 9.073748e-02
<MEAN> 25
 -6.863780e-01 3.548558e+00 -1.524669e+00 4.658238e+00 6.982687e+00 4.629751e+00 7.715148e+00 4.480136e+00 4.562129e+00 3.171499e+00 1.945039e+00 3.666949e+00 -5.598933e-01 1.286175e-01 -6.063559e-02 4.065861e-01 9.533204e-01 1.197777e+00 1.241800e+00 7.378496e-01 6.091422e-01 5.419395e-01 2.799631e-01 1.361737e-01 -7.922995e-01
<VARIANCE> 25
 7.833406e+00 1.543299e+01 1.567128e+01 2.002508e+01 2.287749e+01 2.517430e+01 2.482231e+01 2.470957e+01 2.443711e+01 2.099281e+01 2.480011e+01 2.197591e+01 6.253038e-01 1.313708e+00 1.173925e+00 1.093164e+00 1.430641e+00 1.719616e+00 1.847051e+00 2.233350e+00 2.141635e+00 1.903767e+00 2.171647e+00 1.893188e+00 4.817418e-01
<GCONST> 8.626552e+01
<MIXTURE> 7 9.226365e-02
<MEAN> 25
 1.110787e+01 -2.468144e+00 -4.441940e+00 -6.081767e+00 -2.735623e+00 7.676198e-01 -1.055615e+01 -8.184920e+00 -3.425175e+00 5.158612e-01 1.511304e-01 -4.191499e+00 8.819293e-01 3.526121e+00 1.193363e+00 2.078870e+00 1.946482e+00 4.433805e-01 1.915594e+00 -1.217287e+00 -1.329606e+00 -8.981034e-01 -2.412977e-02 3.472082e-01 -3.910580e+00
<VARIANCE> 25
 5.396613e+00 1.633300e+01 2.100469e+01 4.875440e+01 3.806459e+01 4.618447e+01 3.453699e+01 2.986211e+01 3.566204e+01 3.563302e+01 4.971802e+01 2.776456e+01 6.984594e-01 1.671503e+00 1.663918e+00 3.137203e+00 3.449018e+00 3.617608e+00 3.556739e+00 4.283006e+00 4.065650e+00 3.703147e+00 4.075914e+00 3.749602e+00 7.071974e-01
<GCONST> 9.829228e+01
<MIXTURE> 8 6.401487e-02
<MEAN> 25
 8.677852e+00 6.236761e+00 5.469502e-01 1.732000e+00 -2.051764e+00 -3.370412e+00 -3.079204e+00 -8.312018e+00 -7.156302e+00 -4.216641e+00 -2.870937e+00 -4.016708e+00 -4.335131e-01 5.119807e-01 2.718559e-01 4.269769e-01 6.278768e-01 3.399366e-01 5.325682e-01 8.788865e-01 8.060904e-01 2.379521e-02 5.927844e-02 3.279131e-01 -6.622963e-01
<VARIANCE> 25
 1.431971e+01 2.560059e+01 2.409837e+01 3.320889e+01 3.416362e+01 4.797654e+01 4.352856e+01 5.563573e+01 5.236230e+01 4.352687e+01 5.366310e+01 5.473795e+01 1.907844e+00 1.703943e+00 2.173354e+00 2.976606e+00 3.289675e+00 3.557687e+00 3.785060e+00 4.442183e+00 4.031996e+00 3.576809e+00 4.459687e+00 3.862297e+00 1.462794e+00
<GCONST> 1.036706e+02
<MIXTURE> 9 1.021602e-01
<MEAN> 25
 -1.356604e+00 9.620742e-01 -2.001512e+00 3.168842e+00 5.968811e+00 1.281977e+00 5.262840e+00 4.757460e+00 3.922473e+00 3.233516e+00 2.616187e+00 6.067950e+00 -1.282908e-01 6.613296e-02 1.083071e-01 2.225661e-01 2.915935e-01 1.914906e-01 4.347939e-02 -8.340691e-02 -5.582991e-02 -3.715524e-02 3.003983e-02 6.910013e-02 -1.840415e-01
<VARIANCE> 25
 8.013342e+00 2.542413e+01 1.402443e+01 1.413754e+01 1.734882e+01 1.756425e+01 1.732675e+01 3.075707e+01 2.591744e+01 2.749174e+01 2.288721e+01 1.860238e+01 1.740211e-01 4.673567e-01 5.068341e-01 7.560945e-01 8.668681e-01 1.046613e+00 1.140978e+00 1.198144e+00 1.229040e+00 1.379870e+00 1.276314e+00 1.306015e+00 2.005647e-01
<GCONST> 7.735329e+01
<STATE> 3
<NUMMIXES> 9
<MIXTURE> 1 5.562888e-02
<MEAN> 25
 -1.410309e+00 6.133296e+00 1.371433e+00 8.618296e+00 1.136657e+01 7.679872e+00 9.548880e+00 1.479986e+00 6.086119e-01 -2.566630e-01 -1.644888e+00 9.987584e-01 2.647690e+00 2.647007e+00 1.717412e+00 1.542235e-01 -1.602849e+00 -2.663786e+00 -3.048190e+00 -3.062715e+00 -2.914072e+00 -2.650831e+00 -2.389914e+00 -2.271617e+00 1.367541e+00
<VARIANCE> 25
 7.136527e+00 1.017607e+01 1.138047e+01 1.476188e+01 1.964710e+01 2.184921e+01 2.494660e+01 1.819796e+01 2.418926e+01 2.030565e+01 2.286238e+01 1.604262e+01 8.617135e-01 7.806250e-01 7.575617e-01 1.228726e+00 2.087881e+00 2.345869e+00 2.141000e+00 2.292979e+00 2.234950e+00 1.834620e+00 1.505782e+00 1.531602e+00 5.145218e-01
<GCONST> 8.393175e+01
<MIXTURE> 2 1.072137e-01
<MEAN> 25
 5.275463e+00 1.038117e+01 3.757719e+00 5.670724e+00 4.313678e+00 -6.522309e-01 1.182759e+00 -4.430389e+00 -3.799572e+00 -3.112360e+00 -3.463685e+00 -2.027833e+00 -1.212703e+00 -2.321153e+00 -9.244672e-01 -5.682557e-01 -4.016697e-01 -1.579653e-01 -6.105585e-01 3.802905e-01 5.119128e-01 1.502632e-01 6.332919e-01 3.008241e-01 2.608507e+00
<VARIANCE> 25
 1.666476e+01 1.505442e+01 1.303269e+01 1.867301e+01 1.931745e+01 2.088057e+01 2.213131e+01 2.430139e+01 2.369301e+01 2.371426e+01 2.119902e+01 2.243001e+01 1.852940e+00 1.565489e+00 2.036201e+00 2.868035e+00 2.539229e+00 2.614124e+00 2.710743e+00 2.913365e+00 2.687742e+00 2.466133e+00 2.140308e+00 1.881713e+00 1.988182e+00
<GCONST> 9.251009e+01
<MIXTURE> 3 1.268558e-01
<MEAN> 25
 8.889028e+00 9.900331e+00 3.400960e+00 4.376762e+00 1.087224e+00 -4.602705e+00 -2.705448e+00 -5.180540e+00 -1.898553e+00 -1.889207e+00 -3.859085e+00 -4.603793e+00 -1.553357e+00 -1.447380e+00 8.729252e-01 9.518486e-01 -3.434770e-01 -5.183451e-01 -5.853117e-02 3.550116e-01 -5.210055e-01 -9.072470e-01 3.109240e-01 7.003621e-01 1.463946e+00
<VARIANCE> 25
 5.530803e+00 1.684265e+01 1.223692e+01 1.470675e+01 1.796445e+01 1.835173e+01 2.129628e+01 2.374522e+01 2.060784e+01 2.177741e+01 1.820420e+01 1.948744e+01 9.341357e-01 1.013306e+00 1.571414e+00 1.465052e+00 2.081187e+00 1.936272e+00 1.947870e+00 2.001292e+00 2.215318e+00 1.976822e+00 2.018276e+00 1.612426e+00 6.932362e-01
<GCONST> 8.549961e+01
<MIXTURE> 4 1.542917e-01
<MEAN> 25
 7.810538e+00 1.215593e+01 3.595777e+00 4.896259e+00 3.125987e+00 -2.757595e+00 2.266950e-01 -4.818828e+00 -3.545300e+00 -3.281260e+00 -5.294799e+00 -3.793242e+00 -2.543037e-01 2.268981e-01 1.375965e-01 2.014940e-01 4.353744e-01 3.073498e-01 2.411534e-01 8.120686e-02 6.738171e-03 -7.429945e-02 -2.983289e-02 6.010059e-02 -1.178078e-01
<VARIANCE> 25
 6.477837e+00 6.451138e+00 1.040297e+01 1.538067e+01 1.733280e+01 2.045580e+01 2.313719e+01 2.487657e+01 2.590581e+01 2.092029e+01 1.620278e+01 1.722609e+01 5.826511e-01 5.848417e-01 6.370305e-01 8.976033e-01 1.126732e+00 1.379507e+00 1.191682e+00 1.289205e+00 1.553400e+00 1.416328e+00 1.470961e+00 1.284440e+00 3.437119e-01
<GCONST> 7.849950e+01
<MIXTURE> 5 7.193186e-02
<MEAN> 25
 5.932288e+00 1.259294e+01 4.515735e+00 6.614395e+00 4.105371e+00 -1.197765e+00 3.938503e-01 -6.472232e+00 -5.237017e+00 -4.617224e+00 -5.332619e+00 -3.131162e+00 2.715172e+00 1.432785e+00 5.921187e-01 -1.126367e+00 -2.856565e+00 -2.821952e+00 -2.760879e+00 -2.333326e+00 -1.812122e+00 -1.518741e+00 -1.457138e+00 -1.936770e+00 2.380756e+00
<VARIANCE> 25
 1.233915e+01 1.081302e+01 1.134205e+01 1.991278e+01 3.328546e+01 2.534212e+01 2.839258e+01 2.435156e+01 2.674309e+01 2.166196e+01 1.909842e+01 1.822130e+01 1.159529e+00 2.046098e+00 1.597004e+00 2.373126e+00 2.550010e+00 3.012141e+00 3.088656e+00 3.461823e+00 3.651715e+00 3.046435e+00 2.931627e+00 2.273822e+00 2.159405e+00
<GCONST> 9.343127e+01
<MIXTURE> 6 1.561889e-01
<MEAN> 25
 -2.876949e+00 2.571838e+00 5.970129e-01 7.174587e+00 7.667181e+00 5.087045e+00 7.524421e+00 3.880960e+00 3.928357e+00 2.321051e+00 2.108168e+00 2.734832e+00 1.541889e+00 -1.187559e+00 7.688977e-01 -1.460069e+00 -4.018845e+00 -3.628587e+00 -3.899829e+00 -2.750338e+00 -2.634533e+00 -1.860654e+00 -9.596072e-01 -1.414489e+00 4.851198e+00
<VARIANCE> 25
 9.875474e+00 1.904585e+01 1.544971e+01 1.886815e+01 2.855698e+01 3.169608e+01 2.850506e+01 2.323109e+01 2.452584e+01 2.114697e+01 2.458590e+01 1.690558e+01 2.366502e+00 2.275409e+00 6.836232e+00 5.502897e+00 4.409621e+00 4.747200e+00 3.309360e+00 3.493198e+00 3.683210e+00 3.518158e+00 2.542507e+00 2.438643e+00 1.886567e+00
<GCONST> 9.826467e+01
<MIXTURE> 7 9.495400e-02
<MEAN> 25
 1.012165e+01 5.584783e+00 -1.159769e+00 -1.741868e+00 -1.167832e+00 1.455067e+00 -2.680512e+00 -9.629480e+00 -8.352981e+00 -3.961618e+00 -1.172828e+00 -1.902462e+00 -2.051991e-01 -6.820256e-01 -5.278461e-01 -1.363377e+00 -7.165478e-01 1.394558e-01 -2.988823e-01 4.319095e-01 4.529040e-01 1.840618e-01 4.545998e-01 1.884078e-01 1.288065e+00
<VARIANCE> 25
 8.610094e+00 2.631820e+01 2.019089e+01 3.500012e+01 3.223808e+01 4.415135e+01 4.247633e+01 3.694197e+01 3.864793e+01 3.317916e+01 4.894037e+01 3.879055e+01 9.515797e-01 1.382670e+00 1.956601e+00 3.220151e+00 2.540685e+00 2.408912e+00 2.742727e+00 3.754657e+00 4.103475e+00 2.624303e+00 3.106857e+00 2.863632e+00 1.043809e+00
<GCONST> 9.811879e+01
<MIXTURE> 8 1.377986e-01
<MEAN> 25
 1.035672e+01 7.066422e+00 1.459320e+00 1.832395e+00 -5.460180e-01 -3.944635e+00 -4.773924e+00 -6.002877e+00 -3.292007e+00 -3.518402e+00 -4.099025e+00 -4.885008e+00 -4.168174e-01 8.400977e-01 5.333978e-01 6.738033e-01 2.305834e-01 -1.283359e-01 5.872473e-01 6.633057e-02 -2.681706e-01 -3.304871e-01 1.214232e-01 3.849401e-01 -6.079404e-01
<VARIANCE> 25
 5.368736e+00 2.767082e+01 1.923708e+01 2.322335e+01 2.348066e+01 2.905814e+01 2.490056e+01 2.510336e+01 2.323526e+01 2.723350e+01 2.993678e+01 2.577789e+01 3.726251e-01 7.117791e-01 1.014740e+00 1.264163e+00 1.220627e+00 1.565792e+00 1.541839e+00 1.684980e+00 1.693119e+00 1.806362e+00 1.708182e+00 1.261042e+00 3.944214e-01
<GCONST> 8.459127e+01
<MIXTURE> 9 9.513131e-02
<MEAN> 25
 9.485845e+00 1.020895e+01 2.590179e+00 3.471262e+00 -1.803875e+00 -5.152577e+00 -3.991953e+00 -7.159220e+00 -4.354534e+00 -6.012801e+00 -7.677880e+00 -8.386777e+00 -1.877903e+00 -2.623876e+00 1.298931e+00 -5.623264e-01 -1.678771e+00 -5.357223e-01 -5.156465e-01 1.740213e-01 -6.165608e-01 4.601529e-01 1.335216e+00 1.057849e+00 2.890229e+00
<VARIANCE> 25
 7.093910e+00 1.546080e+01 1.424955e+01 1.769163e+01 2.164897e+01 1.848808e+01 2.440884e+01 2.690218e+01 2.248186e+01 2.298204e+01 1.939614e+01 1.945191e+01 1.054466e+00 1.823708e+00 5.190703e+00 3.349718e+00 3.033660e+00 2.904068e+00 2.784525e+00 3.672882e+00 3.628548e+00 3.519581e+00 2.343624e+00 2.598392e+00 1.112888e+00
<GCONST> 9.330527e+01
<STATE> 4
<NUMMIXES> 9
<MIXTURE> 1 8.494366e-02
<MEAN> 25
 1.604431e+00 1.404050e+00 -2.994972e+00 2.476136e+00 1.037621e+00 -5.883711e-01 -9.963417e-01 -3.559368e+00 -1.460582e+00 -1.112285e+00 8.061303e-01 -1.834626e-01 3.311302e+00 -1.495000e+00 -2.197306e+00 -5.573882e+00 -3.899370e+00 -1.424531e+00 -4.480430e+00 -2.872023e+00 -2.644227e+00 -1.269171e+00 -8.372417e-01 -1.456607e+00 5.783113e+00
<VARIANCE> 25
 2.065747e+01 2.419468e+01 2.269964e+01 3.637459e+01 3.270113e+01 2.742636e+01 3.271989e+01 2.690755e+01 2.968097e+01 2.812823e+01 3.090547e+01 2.080151e+01 1.312547e+00 5.014122e+00 2.991465e+00 6.364283e+00 5.345176e+00 7.140999e+00 4.990254e+00 4.407400e+00 5.981553e+00 6.573043e+00 6.263410e+00 4.216998e+00 2.580805e+00
<GCONST> 1.051070e+02
<MIXTURE> 2 1.084171e-01
<MEAN> 25
 4.196961e+00 6.039565e+00 4.011407e+00 6.720380e+00 3.966492e+00 -3.589993e+00 -1.639488e+00 -3.237820e+00 -1.505716e+00 -1.962666e+00 -3.615550e+00 -2.651672e+00 -1.420362e+00 -3.294036e+00 1.557528e+00 2.121417e-01 -2.944276e+00 -1.623747e+00 -1.633002e+00 5.190171e-02 -1.030880e+00 -1.433113e+00 9.561800e-01 6.972955e-01 3.902805e+00
<VARIANCE> 25
 2.514039e+01 2.944973e+01 1.356588e+01 1.556444e+01 1.648198e+01 2.127291e+01 2.569615e+01 2.693214e+01 2.111477e+01 2.042079e+01 1.902499e+01 1.780098e+01 2.011721e+00 1.736254e+00 3.059586e+00 2.683456e+00 3.456695e+00 2.681400e+00 3.022196e+00 3.141220e+00 3.541122e+00 3.099828e+00 2.304186e+00 1.939258e+00 1.367834e+00
<GCONST> 9.423692e+01
<MIXTURE> 3 1.157755e-01
<MEAN> 25
 6.911836e+00 -2.177073e+00 8.321504e+00 7.162426e+00 -6.321660e+00 -9.977532e+00 -8.290303e+00 -2.679336e+00 -5.913976e+00 -7.696434e+00 -1.913518e-01 -3.040787e-01 -8.576423e-01 -1.692684e+00 2.044917e+00 -4.395586e-01 -2.940176e+00 -7.963054e-01 -6.543761e-01 2.217772e-01 -1.351482e+00 -1.145574e+00 9.289195e-01 5.016072e-01 2.352139e+00
<VARIANCE> 25
 6.801813e+00 1.770832e+01 2.165541e+01 2.117992e+01 2.874436e+01 1.981339e+01 2.749575e+01 2.146285e+01 2.414148e+01 2.682187e+01 2.306104e+01 2.033351e+01 7.543427e-01 1.632267e+00 2.053594e+00 1.981239e+00 3.276722e+00 2.266135e+00 2.626908e+00 2.634017e+00 2.910743e+00 2.496575e+00 2.065075e+00 2.143284e+00 1.089503e+00
<GCONST> 9.132233e+01
<MIXTURE> 4 9.907102e-02
<MEAN> 25
 -8.119320e-02 3.906718e-01 6.848003e+00 7.028839e+00 -2.858796e+00 -7.134837e+00 -2.187076e+00 -2.189590e+00 -2.912689e+00 -3.644671e+00 -1.254065e+00 -5.553042e-01 1.469572e+00 -1.670955e+00 3.680291e+00 -2.173485e+00 -6.437233e+00 -4.147998e+00 -4.916173e+00 -2.975175e+00 -4.146303e+00 -1.954004e+00 -6.690478e-01 -1.355612e+00 5.755401e+00
<VARIANCE> 25
 2.105686e+01 2.180614e+01 2.917256e+01 2.478540e+01 5.108865e+01 3.469940e+01 3.688741e+01 3.664061e+01 4.154905e+01 3.033316e+01 2.961447e+01 1.907636e+01 1.814511e+00 3.137875e+00 3.607309e+00 6.808810e+00 3.711843e+00 4.883235e+00 3.958994e+00 5.832813e+00 5.023358e+00 6.788173e+00 4.607675e+00 3.471268e+00 1.641510e+00
<GCONST> 1.045995e+02
<MIXTURE> 5 1.308213e-01
<MEAN> 25
 6.783902e+00 6.298241e+00 -1.125123e+00 -6.319419e-01 2.883344e-01 2.357335e-01 -2.033552e-01 -6.326177e+00 -6.429871e+00 -6.093904e+00 -3.391635e+00 -1.821107e+00 3.894868e-01 -2.525203e+00 -2.506155e+00 -4.478638e+00 -2.240042e+00 1.521596e+00 -1.533441e+00 -4.887221e-01 -1.997593e-01 2.100318e-01 1.922705e+00 7.409219e-01 3.761633e+00
<VARIANCE> 25
 1.653908e+01 2.047201e+01 1.963344e+01 3.763800e+01 2.620729e+01 2.263632e+01 2.459226e+01 2.266170e+01 2.077135e+01 2.120074e+01 2.162554e+01 2.032750e+01 1.271958e+00 2.205091e+00 1.929049e+00 3.879528e+00 4.102509e+00 3.146381e+00 3.366682e+00 3.746884e+00 4.470573e+00 4.990152e+00 3.286358e+00 2.885983e+00 1.688809e+00
<GCONST> 9.727456e+01
<MIXTURE> 6 1.529916e-01
<MEAN> 25
 1.037187e+01 -2.184284e+00 -8.345856e+00 -1.520977e+01 -5.625479e+00 6.549867e+00 -5.804687e+00 -7.342420e+00 -4.746385e+00 2.478510e-01 2.933062e+00 -2.219497e+00 5.292732e-01 -3.231955e+00 -2.293674e+00 -4.357652e+00 -1.038493e+00 1.753674e+00 -1.824595e+00 3.454387e-01 9.026183e-01 1.534450e+00 5.815971e-01 -1.387809e+00 3.849273e+00
<VARIANCE> 25
 7.163309e+00 2.019866e+01 1.912896e+01 3.690892e+01 3.466731e+01 3.753604e+01 4.316469e+01 2.731380e+01 3.004111e+01 3.887953e+01 3.825309e+01 3.115995e+01 2.307336e+00 3.285243e+00 2.666042e+00 6.442316e+00 6.127234e+00 5.320754e+00 5.819792e+00 5.907970e+00 5.637488e+00 4.737107e+00 7.636362e+00 4.017696e+00 2.753945e+00
<GCONST> 1.054835e+02
<MIXTURE> 7 9.071928e-02
<MEAN> 25
 6.742458e+00 4.664576e-01 -1.741134e+00 2.044754e-01 -2.358891e+00 -4.973011e+00 -7.987740e+00 -6.193137e+00 -2.061821e+00 -1.428790e+00 -1.782694e+00 -4.551353e+00 -2.084246e-01 -4.162920e+00 -1.674899e+00 -3.346580e+00 -1.706514e+00 -4.858463e-01 -1.740613e+00 1.475971e+00 9.064876e-01 1.064966e+00 1.042258e-01 1.029711e-02 4.483040e+00
<VARIANCE> 25
 1.633171e+01 4.150475e+01 2.282737e+01 3.139122e+01 3.598672e+01 3.038158e+01 3.282150e+01 4.075623e+01 3.180546e+01 2.916825e+01 2.942826e+01 2.432863e+01 1.494555e+00 4.256452e+00 3.815058e+00 5.799864e+00 7.355691e+00 5.611692e+00 6.504381e+00 5.921607e+00 5.638208e+00 5.535931e+00 5.187091e+00 4.278679e+00 3.335981e+00
<GCONST> 1.067062e+02
<MIXTURE> 8 1.057586e-01
<MEAN> 25
 3.390138e+00 -2.355043e+00 1.251384e+01 -1.519241e+00 -1.369191e+01 -9.553825e+00 -6.978337e+00 -8.207542e+00 -1.038821e+01 -8.430899e-01 -1.103207e+00 -3.224252e+00 -1.355698e+00 -2.522110e+00 3.080935e+00 -3.875949e+00 -3.105944e+00 -1.428494e-01 -1.258856e+00 -1.144365e+00 -2.602192e+00 1.723300e+00 -5.439633e-01 2.248126e-01 3.667223e+00
<VARIANCE> 25
 8.547191e+00 2.292252e+01 2.499766e+01 3.368996e+01 2.155790e+01 2.813307e+01 2.087451e+01 3.001440e+01 3.240903e+01 3.627634e+01 2.850273e+01 2.840133e+01 2.175272e+00 2.719353e+00 2.353376e+00 3.541506e+00 4.438112e+00 4.095807e+00 4.862497e+00 5.219744e+00 4.615381e+00 4.875129e+00 4.769334e+00 4.190402e+00 1.462750e+00
<GCONST> 1.010956e+02
<MIXTURE> 9 1.114879e-01
<MEAN> 25
 3.048514e+00 1.639560e+00 7.622960e+00 7.713500e+00 -4.391750e+00 -8.531390e+00 -4.148636e+00 -3.967460e+00 -4.349212e+00 -6.313076e+00 -2.257113e+00 -2.899736e+00 -1.630924e+00 -3.862552e+00 2.899712e+00 -1.427276e+00 -4.437690e+00 -9.230695e-01 -1.623467e+00 -1.158297e-02 -2.169125e+00 -4.817146e-01 1.446863e+00 9.396157e-01 4.421334e+00
<VARIANCE> 25
 1.398328e+01 2.054995e+01 1.896167e+01 1.840495e+01 2.814969e+01 2.379468e+01 2.744169e+01 2.271401e+01 2.295907e+01 2.016835e+01 2.000161e+01 2.262798e+01 1.400371e+00 1.932180e+00 2.763098e+00 3.924238e+00 3.530812e+00 3.139225e+00 3.409256e+00 4.979507e+00 4.180965e+00 7.314041e+00 3.280803e+00 2.868563e+00 1.183822e+00
<GCONST> 9.710478e+01
<TRANSP> 5
 0.000000e+00 1.000000e+00 0.000000e+00 0.000000e+00 0.000000e+00
 0.000000e+00 7.149266e-01 2.850734e-01 0.000000e+00 0.000000e+00
 0.000000e+00 0.000000e+00 5.123439e-01 4.876561e-01 0.000000e+00
 0.000000e+00 0.000000e+00 0.000000e+00 5.269860e-01 4.730140e-01
 0.000000e+00 0.000000e+00 0.000000e+00 0.000000e+00 0.000000e+00
<ENDHMM>
~h "C"
<BEGINHMM>
<NUMSTATES> 5
<STATE> 2
<NUMMIXES> 9
<MIXTURE> 1 6.427046e-02
<MEAN> 25
 -9.272940e+00 3.823351e+00 1.985331e+00 1.198920e+00 8.356914e+00 5.218605e+00 4.111930e+00 2.734595e+00 3.006882e+00 2.042772e+00 3.216748e+00 1.403619e+00 -2.400386e+00 3.844688e-01 8.222472e-01 -1.548631e+00 -1.166504e+00 -8.935111e-01 -1.740059e+00 -9.865901e-01 -1.086577e+00 -9.444872e-01 -8.842195e-02 -8.582657e-01 3.594730e+00
<VARIANCE> 25
 5.135470e+01 3.549583e+01 2.295269e+01 3.693210e+01 3.329084e+01 3.709736e+01 3.535123e+01 3.702252e+01 3.362392e+01 2.615689e+01 3.253783e+01 2.017198e+01 7.645774e+00 3.349417e+00 3.284862e+00 2.989796e+00 3.790184e+00 4.383485e+00 3.281641e+00 4.038224e+00 3.464965e+00 3.136626e+00 2.802888e+00 2.167590e+00 3.503904e+00
<GCONST> 1.041252e+02
<MIXTURE> 2 1.464868e-01
<MEAN> 25
 2.008684e+00 1.130114e+01 6.531719e+00 3.516908e+00 -1.863753e+00 -3.590223e+00 -4.355137e-01 -3.403079e+00 -2.531253e+00 -2.967061e+00 -4.177631e+00 -3.912074e+00 -2.179632e+00 3.430471e-01 -2.512378e-02 3.341902e-01 2.035737e+00 1.202939e+00 6.217722e-01 6.283231e-01 8.378080e-01 4.705665e-01 7.831871e-01 2.895190e-01 -4.386114e-01
<VARIANCE> 25
 4.383910e+01 2.075106e+01 2.068160e+01 2.236030e+01 4.372946e+01 2.526625e+01 2.611986e+01 2.998588e+01 2.959480e+01 2.449956e+01 2.689163e+01 2.535973e+01 2.775845e+00 3.039326e+00 3.240093e+00 2.242599e+00 4.221445e+00 3.372856e+00 2.898455e+00 3.219154e+00 3.003574e+00 2.676105e+00 2.686817e+00 2.158041e+00 1.607815e+00
<GCONST> 9.900039e+01
<MIXTURE> 3 8.984178e-02
<MEAN> 25
 -4.703852e+00 1.321397e+01 6.609015e+00 -8.136633e-01 -1.355011e+00 -7.729279e+00 -5.631473e-01 -2.378884e+00 -5.765559e+00 -4.005271e+00 -1.898139e+00 -2.115384e+00 -3.235572e+00 3.499183e+00 -5.413651e-01 1.193784e-01 3.595537e+00 1.137947e+00 1.136966e+00 1.420761e+00 1.137134e+00 7.855582e-01 3.097497e-01 -3.251102e-01 -1.383995e+00
<VARIANCE> 25
 1.373807e+01 1.701420e+01 2.438755e+01 1.941291e+01 2.378327e+01 2.636754e+01 2.590993e+01 2.825969e+01 2.725269e+01 2.271495e+01 2.490707e+01 3.109310e+01 1.810038e+00 2.392761e+00 1.851719e+00 2.273056e+00 2.824207e+00 2.663475e+00 2.454288e+00 2.218729e+00 2.949384e+00 2.486096e+00 2.702890e+00 2.303909e+00 8.708448e-01
<GCONST> 9.397726e+01
<MIXTURE> 4 1.178076e-01
<MEAN> 25
 2.874198e+00 7.386446e+00 7.954997e+00 1.767984e+00 -5.663609e+00 -5.080471e+00 -2.441842e+00 -2.646572e+00 -2.991199e+00 -4.476616e+00 -3.730003e+00 -2.887920e+00 3.951128e-01 2.472116e+00 -3.475116e-01 1.045508e+00 2.467082e+00 1.543998e+00 1.915207e+00 1.044471e+00 1.463433e+00 7.787559e-01 -3.876342e-01 -3.281434e-01 -3.655197e+00
<VARIANCE> 25
 2.033440e+01 2.356993e+01 2.174428e+01 2.408901e+01 3.765648e+01 3.406932e+01 3.143533e+01 3.312990e+01 3.133802e+01 2.424994e+01 2.732818e+01 2.949051e+01 1.724182e+00 2.118009e+00 1.985821e+00 2.402657e+00 3.012329e+00 2.412733e+00 3.108751e+00 3.223761e+00 3.218963e+00 2.653993e+00 2.892079e+00 2.086083e+00 8.033982e-01
<GCONST> 9.668039e+01
<MIXTURE> 5 1.110537e-01
<MEAN> 25
 -3.355645e+00 9.905911e+00 5.564445e+00 1.789492e+00 4.118605e+00 -1.419569e+00 -1.995490e+00 -2.254179e+00 -2.190247e+00 -2.948003e+00 -1.473273e+00 -3.376507e+00 -6.068245e+00 -5.877866e-01 -6.272998e-01 -9.330105e-01 2.706752e+00 2.087759e+00 7.126955e-01 1.517458e+00 1.141029e+00 1.253685e+00 2.030185e+00 8.281182e-01 2.497251e+00
<VARIANCE> 25
 3.889845e+01 3.747790e+01 2.408167e+01 2.209276e+01 3.227442e+01 2.607094e+01 3.138381e+01 2.723771e+01 2.744030e+01 2.857797e+01 2.806352e+01 2.563959e+01 2.070039e+00 3.739896e+00 3.424366e+00 2.735017e+00 2.745750e+00 2.924189e+00 2.661024e+00 4.115722e+00 3.506876e+00 3.143287e+00 3.109109e+00 2.268576e+00 1.516396e+00
<GCONST> 9.976768e+01
<MIXTURE> 6 1.279280e-01
<MEAN> 25
 3.764895e+00 -1.435535e+00 7.624746e+00 2.552811e+00 -1.009721e+01 -8.220632e+00 -9.211061e+00 -3.529126e+00 -2.553779e+00 -6.867032e+00 -2.205229e+00 -8.118114e-01 -1.914293e+00 3.211476e+00 1.346904e+00 8.772345e-01 1.544030e+00 3.717769e-02 2.482563e+00 -4.464324e-01 -5.119022e-01 -2.416307e-01 -8.426070e-01 1.083735e+00 -1.639937e+00
<VARIANCE> 25
 1.115064e+01 2.000622e+01 2.320250e+01 3.904230e+01 3.663136e+01 3.602369e+01 5.233346e+01 3.942941e+01 4.219994e+01 3.009213e+01 2.865367e+01 2.466560e+01 1.509281e+00 2.167698e+00 2.389102e+00 2.153437e+00 5.047926e+00 3.963519e+00 5.817696e+00 4.310249e+00 4.369182e+00 4.120633e+00 4.203564e+00 3.423682e+00 1.213243e+00
<GCONST> 1.014798e+02
<MIXTURE> 7 1.117724e-01
<MEAN> 25
 3.998527e+00 9.409440e+00 4.965346e+00 -5.159683e-01 -2.747422e+00 -3.250506e+00 -5.071113e+00 -7.805233e+00 -6.102262e+00 -6.930205e+00 -4.933851e+00 -4.413398e+00 -5.174751e+00 9.590040e-01 1.622256e+00 -2.572314e-01 2.092772e+00 8.957834e-01 4.886355e-01 1.967200e+00 8.398329e-01 8.458927e-02 1.202395e+00 1.537908e-01 1.275400e+00
<VARIANCE> 25
 3.409049e+01 1.935660e+01 3.117390e+01 2.489512e+01 3.281895e+01 2.655006e+01 3.246518e+01 4.717217e+01 3.169350e+01 3.025418e+01 2.745910e+01 2.650384e+01 2.307105e+00 2.997151e+00 3.185734e+00 3.176862e+00 4.436443e+00 4.408387e+00 4.568567e+00 5.514178e+00 4.542996e+00 4.384088e+00 4.365189e+00 3.884238e+00 9.125419e-01
<GCONST> 1.028317e+02
<MIXTURE> 8 1.021082e-01
<MEAN> 25
 9.850817e-01 3.468660e+00 9.729582e+00 -3.676784e+00 -1.008661e+01 -6.608170e+00 -4.733791e+00 -6.703971e+00 -8.358779e+00 -3.003110e+00 -2.825824e+00 -3.535733e+00 -6.626647e-01 4.090070e+00 -7.509729e-01 2.238136e+00 1.714106e+00 1.372815e+00 1.589647e+00 -2.165083e-02 1.866211e+00 -1.687523e+00 6.369898e-01 -1.715025e+00 -2.611956e+00
<VARIANCE> 25
 1.372641e+01 3.319996e+01 2.825384e+01 2.448745e+01 2.285077e+01 3.407192e+01 3.148900e+01 3.602402e+01 3.064326e+01 3.383325e+01 2.661754e+01 3.838326e+01 2.317927e+00 1.989129e+00 2.628415e+00 2.127920e+00 4.324396e+00 3.181577e+00 3.171132e+00 3.822111e+00 4.068933e+00 2.632128e+00 3.352851e+00 3.019079e+00 1.311985e+00
<GCONST> 9.949644e+01
<MIXTURE> 9 1.287216e-01
<MEAN> 25
 -1.563958e+00 6.531947e+00 9.590120e+00 1.033547e+00 -4.550346e+00 -7.112389e+00 -5.431834e+00 -2.336632e+00 -3.365771e+00 -6.850414e+00 -3.329178e+00 2.165480e-01 -3.092994e+00 3.224491e+00 5.636748e-01 -6.972722e-01 2.335519e+00 1.496348e+00 1.246501e+00 4.611572e-01 3.196580e-01 2.009282e-01 -6.638175e-03 3.006152e-02 -9.860371e-01
<VARIANCE> 25
 1.791201e+01 1.377970e+01 1.856849e+01 2.395949e+01 3.058128e+01 4.045319e+01 3.329331e+01 3.156908e+01 3.881471e+01 2.371543e+01 2.211113e+01 2.396897e+01 1.570019e+00 2.097258e+00 2.089138e+00 2.101110e+00 3.032158e+00 3.972153e+00 3.588280e+00 3.256328e+00 3.572293e+00 2.563616e+00 2.348575e+00 2.063268e+00 6.794446e-01
<GCONST> 9.575329e+01
<STATE> 3
<NUMMIXES> 9
<MIXTURE> 1 1.149295e-01
<MEAN> 25
 -1.488637e+01 9.856099e+00 3.969328e+00 -7.971151e-01 6.132078e+00 2.134703e+00 1.245116e+00 1.620575e+00 2.097583e+00 1.307393e+00 3.976107e+00 -2.061681e-01 -4.923671e+00 -9.013643e-01 -7.230098e-01 -1.044604e+00 9.221902e-01 1.702653e+00 1.370784e+00 1.430354e+00 1.206957e+00 1.566951e+00 2.182179e+00 1.017881e+00 2.290654e+00
<VARIANCE> 25
 2.393413e+01 3.879412e+01 3.236183e+01 1.972292e+01 2.994223e+01 3.163909e+01 2.552162e+01 2.472941e+01 3.052744e+01 2.606302e+01 2.500576e+01 1.821943e+01 3.264507e+00 2.304851e+00 2.303447e+00 1.904653e+00 3.036743e+00 2.557558e+00 1.957071e+00 2.600726e+00 2.253394e+00 2.461346e+00 2.040233e+00 1.784828e+00 2.093115e+00
<GCONST> 9.625928e+01
<MIXTURE> 2 1.154437e-01
<MEAN> 25
 -7.001081e+00 5.861598e+00 9.833385e+00 3.373283e+00 -1.355158e+00 1.614913e+00 8.650433e-01 -5.334031e+00 7.023219e-01 -4.721651e+00 -2.032888e+00 -2.151398e+00 -5.339481e+00 -2.045184e-01 9.576537e-01 -3.339248e-01 3.466003e-01 7.370052e-01 1.005137e+00 -1.778806e-02 4.526849e-01 -5.530776e-01 1.073988e+00 7.202276e-01 2.590936e+00
<VARIANCE> 25
 4.697160e+01 3.174799e+01 2.656464e+01 4.611897e+01 4.068430e+01 4.101290e+01 5.508816e+01 2.948489e+01 3.205204e+01 2.757676e+01 2.363840e+01 2.351124e+01 2.905178e+00 2.849129e+00 2.604971e+00 2.934699e+00 3.340106e+00 3.876810e+00 4.436885e+00 3.969322e+00 3.198337e+00 2.784735e+00 2.950765e+00 2.282972e+00 1.717945e+00
<GCONST> 1.024949e+02
<MIXTURE> 3 1.083497e-01
<MEAN> 25
 -1.080407e+01 1.420599e+01 1.077925e+01 -1.724059e+00 3.073902e+00 -2.517205e+00 -3.500062e+00 4.368331e-01 -3.589833e+00 -4.014636e+00 -1.646022e+00 -1.077432e+00 -3.592636e+00 4.304812e-01 8.249831e-01 -2.552304e-01 1.607531e+00 2.248989e+00 7.107983e-01 3.170252e-01 5.696631e-01 3.798536e-01 6.250960e-01 -1.926686e-01 2.224783e-01
<VARIANCE> 25
 1.993528e+01 1.658868e+01 2.000198e+01 1.870686e+01 2.139061e+01 3.130865e+01 2.631056e+01 2.163194e+01 2.322819e+01 2.479614e+01 1.924974e+01 1.919657e+01 1.568614e+00 2.395404e+00 1.768733e+00 1.701189e+00 1.671752e+00 2.444756e+00 2.275150e+00 2.536638e+00 2.444802e+00 2.016502e+00 1.982383e+00 1.625359e+00 9.685957e-01
<GCONST> 9.111163e+01
<MIXTURE> 4 1.540718e-01
<MEAN> 25
 -2.016191e+01 6.852459e+00 4.977571e+00 -2.349059e+00 3.895734e+00 4.008021e+00 4.236498e+00 2.407931e+00 1.598360e+00 1.393620e+00 5.402616e+00 1.762571e-01 3.063783e+00 -5.562674e-01 9.921378e-01 -3.932498e-01 -4.075669e+00 -3.419387e+00 -2.158378e+00 -2.122374e+00 -2.139523e+00 -1.544974e+00 -8.551480e-01 -3.077885e-01 1.561252e+00
<VARIANCE> 25
 1.167550e+01 2.095753e+01 3.404903e+01 2.362680e+01 3.067731e+01 2.827010e+01 2.857209e+01 3.135240e+01 2.578753e+01 3.038937e+01 3.140611e+01 2.044253e+01 4.657290e+00 3.482000e+00 2.623025e+00 2.974526e+00 3.216880e+00 2.442032e+00 2.574601e+00 2.998886e+00 2.790458e+00 2.804713e+00 2.975664e+00 2.418369e+00 1.404758e+00
<GCONST> 9.814533e+01
<MIXTURE> 5 1.305625e-01
<MEAN> 25
 -2.081285e+01 7.366418e+00 5.252793e+00 -2.034114e+00 5.252256e+00 5.234008e+00 3.376532e+00 3.039675e+00 2.970169e+00 1.450896e+00 4.877650e+00 1.632728e+00 -1.300895e+00 -6.379448e-01 2.518380e-01 -3.121256e-01 -1.148620e+00 -2.159549e-01 5.033645e-01 -1.772116e-02 -3.899902e-01 -2.871726e-01 3.222914e-01 1.235754e-01 1.579817e+00
<VARIANCE> 25
 1.122737e+01 2.699317e+01 3.496382e+01 2.694919e+01 3.321826e+01 2.580778e+01 2.705749e+01 2.708628e+01 2.469374e+01 2.564447e+01 3.123348e+01 1.769316e+01 3.660365e+00 3.113009e+00 2.047572e+00 1.667146e+00 2.325636e+00 2.782736e+00 2.155775e+00 2.459579e+00 2.246575e+00 1.979555e+00 1.768219e+00 1.645792e+00 2.011856e+00
<GCONST> 9.508147e+01
<MIXTURE> 6 6.749220e-02
<MEAN> 25
 -1.132199e+01 1.008368e+01 8.506510e+00 -3.230659e+00 -4.995637e+00 -6.108543e+00 -4.079229e+00 -5.655595e+00 -5.873688e+00 -3.962306e+00 3.428553e+00 -2.190949e+00 6.153689e+00 -2.777270e+00 9.111800e-01 -8.361287e-01 -5.724347e+00 -4.157324e+00 -2.991886e+00 -2.031346e+00 -2.561882e+00 -1.656162e+00 -2.002745e+00 -5.422125e-01 1.263102e+00
<VARIANCE> 25
 1.779213e+01 1.046747e+01 2.371221e+01 1.648312e+01 3.929898e+01 3.080066e+01 2.385730e+01 3.066941e+01 2.454218e+01 2.653732e+01 2.686095e+01 1.804024e+01 1.481035e+00 2.901711e+00 3.122072e+00 3.119626e+00 1.988194e+00 2.762936e+00 2.941268e+00 3.475569e+00 2.875098e+00 3.348709e+00 3.457992e+00 2.614626e+00 7.980883e-01
<GCONST> 9.550189e+01
<MIXTURE> 7 1.385708e-01
<MEAN> 25
 -1.389076e+01 1.321814e+01 7.013178e+00 -5.502481e-01 5.181056e+00 -6.802073e-01 -2.201777e+00 -2.066577e+00 -4.679953e+00 -3.907637e+00 -1.619165e+00 -3.509582e+00 -1.858976e+00 -5.843748e-01 3.803894e-01 -6.792067e-01 -1.507398e+00 -1.250696e+00 -6.563030e-01 -5.571290e-01 -6.841491e-01 1.103415e-01 9.905615e-01 9.427815e-01 2.322100e+00
<VARIANCE> 25
 1.985977e+01 2.481783e+01 3.699618e+01 1.868120e+01 2.624729e+01 3.186239e+01 2.524470e+01 2.710516e+01 2.371476e+01 2.338026e+01 2.080645e+01 2.527842e+01 3.623486e+00 2.507570e+00 2.070661e+00 1.820180e+00 3.421546e+00 2.574981e+00 1.894500e+00 2.602935e+00 2.288657e+00 2.258026e+00 1.991303e+00 1.704200e+00 1.271304e+00
<GCONST> 9.493552e+01
<MIXTURE> 8 8.283626e-02
<MEAN> 25
 -1.155815e+01 7.265121e+00 1.164603e+01 6.332469e+00 -4.496217e+00 -3.250523e+00 2.360330e+00 -7.003935e+00 -1.027462e+00 -6.409727e+00 -1.631836e+00 -9.972396e-01 -1.109569e+00 -4.316987e-01 -1.497634e-01 -7.236786e-03 1.250092e-01 -1.344197e+00 -5.076799e-01 -1.514753e-01 -2.250947e-01 -7.521653e-01 3.651782e-01 6.054636e-01 1.419581e+00
<VARIANCE> 25
 3.261242e+01 1.597822e+01 2.372511e+01 3.968576e+01 3.860984e+01 5.625576e+01 5.230536e+01 2.834965e+01 3.383394e+01 2.218010e+01 2.217758e+01 2.780893e+01 2.334911e+00 1.256967e+00 1.371264e+00 1.537259e+00 1.956025e+00 3.128505e+00 2.893022e+00 2.173490e+00 1.937518e+00 2.150484e+00 1.818927e+00 1.501455e+00 1.072650e+00
<GCONST> 9.505502e+01
<MIXTURE> 9 8.773905e-02
<MEAN> 25
 -1.016743e+01 1.264349e+01 1.153951e+01 -1.958303e+00 -5.127805e-02 -3.589662e+00 -4.524605e+00 -1.193630e+00 -4.642541e+00 -6.170689e+00 -2.297320e+00 -1.353968e+00 -1.501349e+00 1.682898e-01 5.794903e-01 2.135363e-01 1.065962e-01 2.049904e-01 -7.063914e-02 -3.222501e-01 4.077087e-02 3.599064e-02 4.059743e-01 5.015738e-02 4.249934e-01
<VARIANCE> 25
 1.917137e+01 1.722372e+01 1.838200e+01 1.471356e+01 3.173926e+01 2.834418e+01 2.665863e+01 2.648748e+01 2.920291e+01 1.946129e+01 1.925474e+01 3.131818e+01 1.057534e+00 9.341563e-01 1.072481e+00 9.460512e-01 1.221529e+00 1.553929e+00 1.209786e+00 1.213676e+00 1.600915e+00 1.528534e+00 1.378892e+00 1.320946e+00 3.768539e-01
<GCONST> 8.499914e+01
<STATE> 4
<NUMMIXES> 9
<MIXTURE> 1 1.207596e-01
<MEAN> 25
 -1.072435e+01 4.886477e+00 8.523461e+00 5.003522e+00 -3.965435e+00 -5.518222e+00 5.708472e-01 -4.920739e+00 -5.884328e-01 -6.875109e+00 -9.268742e-01 -1.833222e-01 3.489856e+00 -1.028740e+00 -1.098249e+00 -1.429220e-01 -1.049470e+00 -2.940736e+00 -2.829746e+00 -3.937105e-01 -3.691653e-01 -8.640704e-01 -3.814704e-01 -1.634649e-01 6.225981e-01
<VARIANCE> 25
 3.670831e+01 2.148040e+01 2.874808e+01 3.840978e+01 4.203354e+01 6.946043e+01 5.471084e+01 4.846763e+01 3.572272e+01 3.714901e+01 2.817376e+01 2.296973e+01 5.798587e+00 2.578714e+00 2.776843e+00 3.526604e+00 4.004895e+00 5.712215e+00 5.092663e+00 3.584045e+00 3.905771e+00 3.562454e+00 3.259397e+00 2.450577e+00 1.928033e+00
<GCONST> 1.055377e+02
<MIXTURE> 2 9.846917e-02
<MEAN> 25
 3.478467e+00 -9.152082e+00 1.830311e+00 -8.903609e+00 -1.033808e+01 -9.112495e+00 -5.304888e+00 4.923125e+00 -1.346354e+00 -3.305914e+00 -4.859512e+00 -2.926440e+00 1.685187e+00 -3.309908e+00 -2.427933e+00 -1.098471e+00 1.994313e+00 1.484957e+00 7.263888e-01 2.181473e+00 8.270699e-01 3.049626e-01 -2.805845e+00 -7.671489e-01 6.102942e-01
<VARIANCE> 25
 1.035338e+01 1.454433e+01 2.163084e+01 1.778295e+01 2.496289e+01 2.502514e+01 4.682434e+01 2.151602e+01 3.732072e+01 2.518852e+01 2.753355e+01 3.163016e+01 1.052130e+00 2.834184e+00 1.783232e+00 2.126247e+00 3.847185e+00 2.961812e+00 3.301099e+00 2.975131e+00 2.967337e+00 4.850668e+00 2.781750e+00 3.327180e+00 2.846343e-01
<GCONST> 9.466019e+01
<MIXTURE> 3 9.892613e-02
<MEAN> 25
 8.351039e-01 -1.441199e+00 1.024681e+01 6.116802e-01 -1.265148e+01 -9.477686e+00 -8.807528e+00 -3.959508e+00 -4.876777e+00 -8.136971e+00 7.679093e-01 7.417766e-01 2.959124e+00 -3.279986e+00 -6.054083e-01 -5.272522e-01 -1.756570e+00 -4.132682e-01 -1.450609e+00 1.003230e+00 3.786295e-01 1.445484e-01 5.232258e-01 -3.440302e-01 3.959919e-01
<VARIANCE> 25
 1.117713e+01 1.801116e+01 1.872735e+01 2.598797e+01 2.360920e+01 1.874374e+01 2.496715e+01 2.658275e+01 3.536398e+01 2.412715e+01 2.183261e+01 2.559542e+01 1.120146e+00 1.313562e+00 1.488485e+00 2.000401e+00 3.187559e+00 2.520155e+00 3.501089e+00 3.504868e+00 3.571896e+00 3.536049e+00 2.635138e+00 2.103979e+00 4.109033e-01
<GCONST> 9.253215e+01
<MIXTURE> 4 1.208341e-01
<MEAN> 25
 -2.267801e+00 8.304358e-01 5.724123e+00 -6.845993e+00 -1.328326e+01 -1.042403e+01 -5.698812e+00 -5.189614e+00 -6.588917e+00 -2.682609e+00 1.038889e+00 -2.111617e+00 4.187452e+00 -5.257284e+00 2.927860e-01 -2.206908e+00 -2.494604e+00 -1.881644e+00 -1.267593e-01 1.236163e+00 -7.166949e-01 2.112188e-01 -2.202477e+00 2.927788e-01 1.153625e+00
<VARIANCE> 25
 1.104845e+01 2.596334e+01 2.547903e+01 1.830786e+01 1.855322e+01 1.957920e+01 1.757339e+01 2.757010e+01 2.091189e+01 2.596166e+01 2.427140e+01 3.247657e+01 2.134532e+00 1.822831e+00 3.515215e+00 2.347514e+00 5.717207e+00 4.225604e+00 3.980777e+00 4.740487e+00 3.787253e+00 4.714341e+00 4.160830e+00 3.448730e+00 6.104808e-01
<GCONST> 9.743989e+01
<MIXTURE> 5 1.386347e-01
<MEAN> 25
 -1.280099e+01 1.052914e+01 1.327119e+01 -7.222060e-01 -1.036671e+00 -2.926537e+00 -3.928864e+00 -3.387763e+00 -4.874316e+00 -6.273414e+00 -1.144448e+00 1.482228e-01 1.757170e+00 -1.701787e+00 -4.354365e-01 4.745448e-01 -2.051167e+00 -1.973861e+00 -7.174606e-01 -7.180934e-01 -5.625826e-01 -2.279152e-01 1.258680e-01 4.682077e-01 1.038538e+00
<VARIANCE> 25
 1.812665e+01 1.384396e+01 1.773062e+01 1.385604e+01 3.086609e+01 3.056237e+01 2.841835e+01 2.892680e+01 2.555136e+01 2.113656e+01 1.626845e+01 1.971356e+01 2.124091e+00 1.157674e+00 1.430554e+00 1.210772e+00 1.794951e+00 2.743769e+00 1.677462e+00 1.623377e+00 2.221795e+00 1.599591e+00 1.536323e+00 1.263194e+00 6.028349e-01
<GCONST> 8.806981e+01
<MIXTURE> 6 1.063620e-01
<MEAN> 25
 -6.286944e+00 6.377667e+00 1.064918e+01 -8.249949e-01 -5.110610e+00 -8.868180e+00 -6.593897e+00 -2.981123e+00 -5.101286e+00 -6.202956e+00 -1.498898e+00 1.842761e+00 4.315094e+00 -3.803111e+00 -9.142377e-01 4.225237e-01 -3.538246e+00 -2.110573e+00 -1.531892e+00 -3.284033e-01 5.072648e-01 -4.617349e-01 3.736962e-01 1.934015e-01 9.911187e-01
<VARIANCE> 25
 1.355258e+01 1.014262e+01 1.377554e+01 1.315508e+01 1.942548e+01 1.810904e+01 2.453645e+01 1.861955e+01 2.565960e+01 2.089523e+01 1.588016e+01 1.537738e+01 1.953670e+00 1.716069e+00 2.688682e+00 1.877114e+00 2.717173e+00 3.271022e+00 2.440963e+00 2.406258e+00 3.465857e+00 2.375452e+00 2.211873e+00 2.034599e+00 6.663347e-01
<GCONST> 8.982975e+01
<MIXTURE> 7 1.201374e-01
<MEAN> 25
 -1.157905e+01 1.245404e+01 6.765014e+00 -2.362324e+00 -2.557139e+00 -6.761036e+00 -4.500148e+00 -6.021099e+00 -6.878914e+00 -3.592297e+00 4.665456e-01 -1.767345e+00 3.160987e+00 -3.271712e+00 7.676941e-01 -1.218216e+00 -4.541062e+00 -2.569462e+00 -1.454043e+00 -8.701722e-01 -9.045388e-01 -2.815565e-01 3.356702e-01 8.807597e-01 1.625179e+00
<VARIANCE> 25
 1.260644e+01 1.239964e+01 3.228250e+01 1.898513e+01 3.337066e+01 2.524621e+01 2.193535e+01 2.960640e+01 2.234863e+01 2.767048e+01 2.674573e+01 2.678383e+01 2.906472e+00 3.799491e+00 3.393355e+00 3.223601e+00 3.396478e+00 2.953891e+00 3.100967e+00 3.956669e+00 3.484594e+00 3.437988e+00 2.928586e+00 3.125452e+00 1.046539e+00
<GCONST> 9.798066e+01
<MIXTURE> 8 1.004151e-01
<MEAN> 25
 3.486479e+00 -5.310767e+00 4.744296e+00 -2.082265e+00 -1.161337e+01 -9.855759e+00 -1.149249e+01 -8.126284e-01 2.879272e+00 -5.634201e+00 -7.337525e-01 -1.049521e+00 3.599875e+00 -3.856807e+00 -2.614383e+00 -1.051754e+00 -1.640929e+00 2.215600e-01 -1.504330e+00 1.446089e+00 2.049750e+00 8.687557e-01 1.510254e-01 -1.949688e+00 9.117696e-01
<VARIANCE> 25
 8.501193e+00 1.876665e+01 1.456048e+01 1.609571e+01 2.616626e+01 1.977306e+01 2.688062e+01 2.445055e+01 2.549088e+01 2.018691e+01 2.047440e+01 1.727111e+01 2.245633e+00 1.969416e+00 1.888870e+00 2.193512e+00 3.627875e+00 5.034085e+00 4.851509e+00 4.548594e+00 3.293894e+00 3.614475e+00 3.436883e+00 2.388635e+00 4.651106e-01
<GCONST> 9.404852e+01
<MIXTURE> 9 9.545407e-02
<MEAN> 25
 -2.932825e+00 2.540160e+00 8.178439e+00 -1.230007e-01 -9.266380e+00 -1.133168e+01 -6.752783e+00 -4.722492e+00 -3.986296e+00 -7.498805e+00 -1.137465e+00 1.032350e+00 5.435935e+00 -4.127678e+00 -8.121908e-01 -3.533813e-01 -4.127005e+00 -2.368235e+00 -3.552122e+00 6.292915e-01 -1.594213e-02 -7.093743e-01 2.427062e-01 -6.653175e-01 1.234318e+00
<VARIANCE> 25
 1.120329e+01 1.359215e+01 1.835367e+01 1.949709e+01 2.066571e+01 1.697122e+01 2.225403e+01 1.996802e+01 2.200552e+01 2.127857e+01 1.698734e+01 1.762759e+01 2.190488e+00 2.387093e+00 4.357646e+00 2.800929e+00 3.773367e+00 4.865588e+00 4.140786e+00 5.196163e+00 5.098830e+00 4.055725e+00 5.381114e+00 2.612431e+00 7.365782e-01
<GCONST> 9.616192e+01
<TRANSP> 5
 0.000000e+00 1.000000e+00 0.000000e+00 0.000000e+00 0.000000e+00
 0.000000e+00 6.987234e-01 3.012766e-01 0.000000e+00 0.000000e+00
 0.000000e+00 0.000000e+00 6.537414e-01 3.462586e-01 0.000000e+00
 0.000000e+00 0.000000e+00 0.000000e+00 6.705143e-01 3.294857e-01
 0.000000e+00 0.000000e+00 0.000000e+00 0.000000e+00 0.000000e+00
<ENDHMM>
~h "D"
<BEGINHMM>
<NUMSTATES> 5
<STATE> 2
<NUMMIXES> 9
<MIXTURE> 1 5.789655e-02
<MEAN> 25
 -2.987873e+00 5.641365e+00 3.243362e-01 5.755323e+00 8.322940e+00 5.118988e+00 7.448639e+00 2.989771e+00 2.930166e+00 2.562083e+00 1.313919e+00 2.769462e+00 2.981701e-01 -2.577312e-01 4.095749e-01 -6.726570e-01 -1.478825e+00 -1.579783e+00 -1.616988e+00 -1.469651e+00 -1.201005e+00 -9.820544e-01 -7.409745e-01 -9.493604e-01 2.423242e+00
<VARIANCE> 25
 3.282418e+01 2.469578e+01 2.065862e+01 2.834167e+01 3.282236e+01 3.841221e+01 3.727265e+01 3.864294e+01 3.491180e+01 2.965281e+01 3.282400e+01 2.357210e+01 4.370134e+00 4.854074e+00 2.657839e+00 3.060208e+00 3.443735e+00 3.786813e+00 4.153321e+00 3.821856e+00 3.569339e+00 3.217131e+00 2.920482e+00 2.651809e+00 5.027829e+00
<GCONST> 1.036091e+02
<MIXTURE> 2 7.824312e-02
<MEAN> 25
 7.876590e+00 6.081344e+00 -1.429965e-02 -8.055074e-01 2.197476e+00 -2.268140e+00 -8.889920e+00 -7.829589e+00 1.977470e+00 3.031271e+00 -3.821041e+00 -6.604656e+00 -1.419128e-01 2.701839e+00 1.241633e+00 1.833151e+00 1.218511e+00 8.691821e-02 2.575631e+00 6.880841e-01 -6.005849e-01 -5.712290e-01 -7.929123e-01 2.492667e-01 -3.327155e+00
<VARIANCE> 25
 8.955381e+00 1.858292e+01 2.029015e+01 2.801416e+01 2.316604e+01 3.225671e+01 3.526916e+01 3.304231e+01 2.974369e+01 2.789435e+01 3.019888e+01 2.196903e+01 1.212169e+00 1.691308e+00 1.794405e+00 2.711878e+00 2.995471e+00 2.854261e+00 3.723403e+00 4.276301e+00 3.197509e+00 2.821770e+00 3.211556e+00 2.468738e+00 1.621369e+00
<GCONST> 9.626729e+01
<MIXTURE> 3 7.824312e-02
<MEAN> 25
 7.876590e+00 6.081344e+00 -1.429965e-02 -8.055074e-01 2.197476e+00 -2.268140e+00 -8.889920e+00 -7.829589e+00 1.977470e+00 3.031271e+00 -3.821041e+00 -6.604656e+00 -1.419128e-01 2.701839e+00 1.241633e+00 1.833151e+00 1.218511e+00 8.691821e-02 2.575631e+00 6.880841e-01 -6.005849e-01 -5.712290e-01 -7.929123e-01 2.492667e-01 -3.327155e+00
<VARIANCE> 25
 8.955381e+00 1.858292e+01 2.029015e+01 2.801416e+01 2.316604e+01 3.225671e+01 3.526916e+01 3.304231e+01 2.974369e+01 2.789435e+01 3.019888e+01 2.196903e+01 1.212169e+00 1.691308e+00 1.794405e+00 2.711878e+00 2.995471e+00 2.854261e+00 3.723403e+00 4.276301e+00 3.197509e+00 2.821770e+00 3.211556e+00 2.468738e+00 1.621369e+00
<GCONST> 9.626729e+01
<MIXTURE> 4 1.234972e-01
<MEAN> 25
 8.322054e+00 8.448106e+00 3.966908e+00 2.153537e+00 -5.229354e+00 -3.143121e+00 -2.259814e+00 -1.121282e+01 -5.954349e+00 -1.259493e+00 -6.068738e+00 -4.660645e+00 -2.076333e+00 -5.652969e-01 -6.207601e-01 -1.238286e-01 2.120379e+00 -7.567273e-01 -2.708783e-01 2.281871e+00 9.637792e-01 -7.637218e-01 5.564472e-01 2.887810e-01 1.102148e+00
<VARIANCE> 25
 9.481541e+00 1.910862e+01 2.039328e+01 2.426985e+01 4.202312e+01 3.545320e+01 3.842580e+01 4.160040e+01 3.830193e+01 4.170720e+01 4.155029e+01 3.594155e+01 1.304982e+00 1.920676e+00 3.652864e+00 3.971587e+00 4.331543e+00 4.279029e+00 4.560085e+00 4.399642e+00 4.405977e+00 4.071397e+00 4.573520e+00 3.965576e+00 9.683018e-01
<GCONST> 1.019838e+02
<MIXTURE> 5 1.915044e-01
<MEAN> 25
 6.092112e+00 7.069841e+00 7.029341e+00 4.732443e+00 -6.061213e+00 -6.936116e+00 -8.103575e-01 -2.357273e+00 -2.903057e+00 -4.079191e+00 -3.263659e+00 -2.653028e+00 5.932084e-01 2.676415e+00 -8.088840e-01 7.601022e-01 2.779509e+00 1.103995e+00 1.732034e+00 7.905210e-01 1.103781e+00 2.803350e-01 -9.146714e-01 -5.125793e-01 -3.468367e+00
<VARIANCE> 25
 1.077599e+01 1.722472e+01 1.757357e+01 2.091410e+01 3.572678e+01 2.922981e+01 2.584160e+01 2.814504e+01 2.707503e+01 2.685313e+01 2.384776e+01 2.345466e+01 1.365688e+00 1.610471e+00 1.977990e+00 2.357739e+00 2.934801e+00 2.883947e+00 2.847480e+00 3.333101e+00 3.399797e+00 3.450721e+00 2.818389e+00 2.279079e+00 9.618590e-01
<GCONST> 9.453107e+01
<MIXTURE> 6 1.048557e-01
<MEAN> 25
 3.916641e+00 1.073241e+01 5.072417e+00 5.225560e+00 2.473210e+00 -2.428161e+00 -1.853926e-01 -3.634453e+00 -2.023429e+00 -1.632756e+00 -2.893836e+00 -1.966347e+00 -1.219114e+00 -9.942094e-02 -5.449474e-01 5.225716e-01 1.988188e+00 1.696007e+00 1.684380e+00 1.233596e+00 6.492809e-01 3.654850e-01 4.928080e-01 6.118349e-01 -1.439745e+00
<VARIANCE> 25
 1.223838e+01 1.105936e+01 1.264709e+01 1.813495e+01 2.797530e+01 2.681646e+01 2.222923e+01 2.261643e+01 2.184141e+01 2.094137e+01 2.004359e+01 1.857936e+01 1.213395e+00 2.172688e+00 2.482177e+00 2.530908e+00 3.180724e+00 2.946493e+00 2.989937e+00 3.221662e+00 3.220866e+00 3.626967e+00 3.040457e+00 2.418428e+00 1.280812e+00
<GCONST> 9.318661e+01
<MIXTURE> 7 1.268665e-01
<MEAN> 25
 6.268841e+00 1.054356e+01 4.210495e+00 4.329389e+00 1.032631e-01 -4.510752e+00 -1.681913e+00 -4.458599e+00 -2.050255e+00 -2.424872e+00 -5.245085e+00 -3.772557e+00 -3.363312e-01 6.118956e-01 2.502028e-02 3.294801e-01 8.072249e-01 2.652600e-01 3.480003e-01 2.349420e-01 1.156051e-01 9.501771e-02 -4.911895e-02 7.084828e-02 -7.225032e-01
<VARIANCE> 25
 1.357259e+01 2.035176e+01 1.660975e+01 2.209312e+01 3.447658e+01 3.047793e+01 3.176266e+01 3.234081e+01 2.717971e+01 2.816012e+01 2.005243e+01 2.105338e+01 6.181800e-01 7.611274e-01 8.334247e-01 1.010170e+00 1.578778e+00 1.373276e+00 1.464880e+00 1.681158e+00 1.599126e+00 1.481176e+00 1.344602e+00 1.343755e+00 5.862223e-01
<GCONST> 8.571999e+01
<MIXTURE> 8 1.095171e-01
<MEAN> 25
 6.659284e+00 1.754496e+00 1.769768e+00 4.789805e-01 -4.852831e+00 -1.031538e+01 -8.549119e+00 -2.035666e+00 -8.227704e-01 -4.742934e+00 -6.454241e+00 -7.044994e-01 1.146356e+00 3.723645e+00 7.959367e-01 2.326702e+00 1.389967e+00 1.116866e+00 1.412644e+00 -5.952097e-01 5.453464e-01 -4.595703e-01 -3.261942e-01 -1.394803e+00 -4.217124e+00
<VARIANCE> 25
 9.350051e+00 2.024774e+01 2.751680e+01 2.432184e+01 3.590602e+01 2.555913e+01 4.017274e+01 2.984518e+01 4.458979e+01 3.781186e+01 3.387284e+01 3.270261e+01 8.285761e-01 9.944955e-01 1.691313e+00 1.769332e+00 3.083617e+00 2.683436e+00 3.481934e+00 3.665419e+00 3.355413e+00 3.230571e+00 3.284098e+00 2.990739e+00 5.740651e-01
<GCONST> 9.572295e+01
<MIXTURE> 9 1.293564e-01
<MEAN> 25
 8.644396e+00 9.364717e+00 2.223318e+00 3.942501e+00 -1.404326e+00 -6.669902e+00 -3.694360e+00 -1.850898e+00 1.070322e+00 -4.457267e+00 -7.906389e+00 -4.633399e+00 -9.553601e-01 1.713992e+00 4.179715e-01 5.939986e-01 1.251474e+00 1.448704e+00 1.682319e+00 -5.599377e-02 -3.799778e-01 1.456287e-02 5.228835e-01 -4.976216e-01 -1.619276e+00
<VARIANCE> 25
 6.571461e+00 1.218916e+01 1.563147e+01 1.629080e+01 2.547497e+01 2.202443e+01 2.448239e+01 2.480083e+01 2.640642e+01 2.862621e+01 2.289982e+01 2.111442e+01 1.380266e+00 1.757117e+00 2.009833e+00 2.734718e+00 3.264741e+00 3.110120e+00 3.598110e+00 3.078387e+00 2.799859e+00 3.031989e+00 3.039043e+00 2.746795e+00 1.273332e+00
<GCONST> 9.323288e+01
<STATE> 3
<NUMMIXES> 9
<MIXTURE> 1 4.179682e-02
<MEAN> 25
 -6.527156e+00 4.613574e-01 4.761217e-01 2.948324e+00 5.938279e+00 4.730619e+00 6.098185e+00 3.291250e+00 3.715399e+00 2.841761e+00 2.882973e+00 2.662195e+00 2.530542e-01 -8.293495e-01 5.258731e-01 -1.885950e+00 -3.571110e+00 -3.593305e+00 -3.867184e+00 -2.721959e+00 -2.098099e+00 -1.997797e+00 -1.134136e+00 -1.433877e+00 5.546649e+00
<VARIANCE> 25
 1.845788e+01 3.757694e+01 3.175453e+01 3.934067e+01 3.877713e+01 3.429225e+01 3.494092e+01 2.977855e+01 2.807195e+01 2.322364e+01 2.928902e+01 2.043145e+01 3.220289e+00 2.532994e+00 3.756616e+00 3.628357e+00 3.946889e+00 4.018198e+00 4.477959e+00 3.666720e+00 3.877640e+00 3.336004e+00 2.837353e+00 2.636054e+00 2.199453e+00
<GCONST> 1.022673e+02
<MIXTURE> 2 1.365869e-01
<MEAN> 25
 3.604282e+00 8.374570e+00 1.528866e+00 3.464601e+00 1.295487e+00 -4.010269e+00 -3.993324e+00 -5.722571e+00 -1.194456e+00 -1.536565e+00 -4.137533e+00 -3.959647e+00 -1.208032e+00 -5.322314e-01 -1.541480e-01 -2.221056e-01 -4.191791e-01 -3.878888e-01 9.928972e-02 7.422242e-02 -2.708300e-02 -2.354540e-01 3.037663e-01 5.677156e-01 1.292584e+00
<VARIANCE> 25
 2.322628e+01 2.986649e+01 2.863260e+01 3.623995e+01 3.817185e+01 3.844628e+01 3.845834e+01 3.649580e+01 3.199480e+01 3.666502e+01 2.674880e+01 2.471673e+01 2.193702e+00 1.738036e+00 2.075184e+00 2.219216e+00 2.197018e+00 2.805127e+00 3.060758e+00 2.857702e+00 2.405689e+00 2.531240e+00 2.379476e+00 2.239189e+00 8.796202e-01
<GCONST> 9.773722e+01
<MIXTURE> 3 1.178625e-01
<MEAN> 25
 6.925025e+00 1.206584e+01 5.525193e+00 5.186506e+00 -3.354362e-01 -4.963525e+00 2.486645e-01 -1.905689e+00 -7.282721e-01 -2.844604e+00 -4.736411e+00 -3.413630e+00 -2.592268e+00 -1.156982e+00 -1.050759e+00 7.550333e-02 1.772576e+00 1.401020e+00 4.890255e-01 -6.915352e-01 -2.205362e-01 5.694190e-02 8.065992e-01 2.418655e-01 1.598737e+00
<VARIANCE> 25
 5.411191e+00 7.456041e+00 9.526276e+00 1.228610e+01 2.166020e+01 1.799709e+01 1.738865e+01 2.124774e+01 1.861273e+01 1.632975e+01 1.616566e+01 1.513729e+01 1.066600e+00 2.099966e+00 2.348736e+00 2.177314e+00 2.489426e+00 2.598653e+00 2.909830e+00 2.695158e+00 2.359288e+00 2.133510e+00 2.124980e+00 1.678770e+00 1.342095e+00
<GCONST> 8.704872e+01
<MIXTURE> 4 1.079832e-01
<MEAN> 25
 2.363903e+00 1.014050e+01 4.352057e+00 6.721155e+00 5.274098e+00 6.980857e-02 1.763388e+00 -2.735066e+00 -1.262655e+00 -1.448861e+00 -2.232218e+00 -1.443674e+00 -3.090130e+00 -2.922974e+00 -1.483407e+00 -9.682115e-01 3.777160e-01 1.086190e+00 9.578995e-01 1.037251e+00 7.091700e-01 2.924431e-01 1.394496e+00 9.683279e-01 2.816338e+00
<VARIANCE> 25
 1.008624e+01 1.280592e+01 1.168046e+01 1.562579e+01 1.970102e+01 1.993659e+01 1.988843e+01 1.938546e+01 2.465467e+01 2.104725e+01 2.066692e+01 1.814187e+01 1.436367e+00 2.352167e+00 3.045845e+00 2.363075e+00 2.656490e+00 3.045245e+00 2.686699e+00 2.919289e+00 2.806073e+00 3.473379e+00 3.249568e+00 2.044609e+00 1.595434e+00
<GCONST> 9.210044e+01
<MIXTURE> 5 8.000015e-02
<MEAN> 25
 5.866928e-01 5.745198e+00 4.150578e-01 3.709912e+00 4.403449e+00 1.390497e+00 4.430457e+00 2.608570e+00 3.794536e+00 3.096931e+00 2.398468e+00 2.487126e+00 -1.367363e+00 -8.923962e-01 -7.976601e-01 5.763191e-02 1.145843e+00 1.638442e+00 1.853011e+00 1.505927e+00 1.254148e+00 1.170361e+00 1.315239e+00 1.004968e+00 -7.289869e-01
<VARIANCE> 25
 9.989818e+00 1.226154e+01 1.846528e+01 2.163575e+01 2.479131e+01 2.969704e+01 2.430466e+01 2.365006e+01 3.000430e+01 2.634978e+01 2.605018e+01 2.280457e+01 1.703347e+00 1.704432e+00 1.742052e+00 1.650702e+00 2.448792e+00 2.372876e+00 2.722343e+00 2.231950e+00 2.335537e+00 2.579904e+00 2.291687e+00 2.010537e+00 2.109814e+00
<GCONST> 9.251701e+01
<MIXTURE> 6 1.127912e-01
<MEAN> 25
 4.183774e+00 6.657975e+00 3.207636e+00 1.781337e+00 -1.491530e+00 -5.597414e+00 -4.181786e+00 -7.781234e+00 -5.405056e+00 -3.330364e+00 -4.807395e+00 -4.107364e+00 -1.696939e+00 -2.608959e+00 -1.620047e+00 -2.098593e+00 1.162027e+00 -1.073607e+00 -1.504549e+00 3.120190e+00 1.925752e+00 -4.315423e-01 6.590202e-01 5.525834e-01 3.065689e+00
<VARIANCE> 25
 1.340164e+01 2.282742e+01 2.692734e+01 2.952969e+01 3.879554e+01 3.364037e+01 3.344586e+01 3.176842e+01 3.194478e+01 3.572953e+01 3.049951e+01 2.811734e+01 1.151950e+00 1.824469e+00 4.935745e+00 3.431516e+00 4.243185e+00 4.726318e+00 5.495230e+00 5.060565e+00 5.361288e+00 4.776754e+00 4.878211e+00 4.258461e+00 9.057301e-01
<GCONST> 1.023590e+02
<MIXTURE> 7 1.205609e-01
<MEAN> 25
 -2.227931e+00 3.709702e+00 9.308389e-02 2.719448e+00 3.718677e+00 -3.916713e+00 1.127736e-01 -3.782495e+00 -1.728094e+00 -2.943958e+00 -3.180045e+00 -1.658508e+00 -8.055723e-01 -3.708178e+00 -2.127302e+00 -2.716701e+00 -2.080657e+00 -1.289270e+00 -2.363328e+00 8.893395e-01 1.698652e+00 4.310245e-01 4.776338e-01 4.759003e-01 4.919087e+00
<VARIANCE> 25
 1.201085e+01 1.823168e+01 2.029321e+01 2.383990e+01 2.864587e+01 3.414068e+01 2.713078e+01 2.596497e+01 2.341346e+01 2.295532e+01 2.616295e+01 2.107620e+01 1.620704e+00 1.664818e+00 2.516867e+00 2.393612e+00 3.543278e+00 3.615580e+00 3.829212e+00 4.974977e+00 3.501007e+00 3.335730e+00 3.592993e+00 3.362123e+00 1.279395e+00
<GCONST> 9.704128e+01
<MIXTURE> 8 1.694811e-01
<MEAN> 25
 -4.315043e-01 7.322346e+00 2.430757e+00 4.933066e+00 3.978178e+00 -1.704354e+00 1.313339e+00 -3.806861e+00 -2.093168e+00 -3.445951e+00 -3.689421e+00 -3.388780e+00 -2.274427e+00 -1.984064e+00 -7.489235e-01 -5.879634e-01 -1.283101e+00 -1.269120e+00 -9.191631e-01 -8.278735e-01 -4.671426e-01 -2.196517e-01 1.115686e+00 1.065313e+00 3.821651e+00
<VARIANCE> 25
 1.863383e+01 2.408001e+01 2.387041e+01 2.591919e+01 2.845241e+01 2.908357e+01 2.749357e+01 2.343456e+01 2.015463e+01 2.148944e+01 1.837814e+01 2.005740e+01 1.460123e+00 1.666375e+00 2.267462e+00 2.040247e+00 2.790578e+00 2.747674e+00 2.646130e+00 3.088526e+00 2.860693e+00 2.412047e+00 2.303105e+00 1.988270e+00 9.037483e-01
<GCONST> 9.355878e+01
<MIXTURE> 9 1.129290e-01
<MEAN> 25
 8.464639e+00 1.158875e+01 3.117023e+00 3.147187e+00 -1.398076e-01 -4.146791e+00 -1.864155e+00 -3.432315e+00 -3.499707e-01 -3.643281e+00 -7.217781e+00 -6.610363e+00 -3.101114e+00 -2.036582e+00 1.953748e-02 3.264775e-02 3.683506e-01 2.786915e-01 2.011100e-01 -8.332160e-02 -6.291298e-01 -2.504263e-01 1.722956e+00 9.172007e-01 2.757285e+00
<VARIANCE> 25
 5.860033e+00 9.959423e+00 1.289648e+01 1.490025e+01 2.417956e+01 2.093738e+01 2.215595e+01 2.352489e+01 2.467482e+01 2.700986e+01 1.874173e+01 1.709920e+01 1.092897e+00 2.163925e+00 2.876286e+00 2.912595e+00 3.625670e+00 4.343923e+00 4.341607e+00 3.763188e+00 2.955432e+00 3.361406e+00 3.202846e+00 2.803161e+00 1.439731e+00
<GCONST> 9.341880e+01
<STATE> 4
<NUMMIXES> 9
<MIXTURE> 1 7.674157e-02
<MEAN> 25
 -1.650694e+00 2.943729e+00 -1.148616e+00 5.465963e+00 8.738407e+00 5.665299e+00 9.529896e+00 5.913479e+00 5.303465e+00 3.947295e+00 3.165296e+00 5.103754e+00 -2.206807e-01 1.133546e-02 8.109009e-02 1.969181e-01 3.663011e-01 4.024118e-01 3.625748e-01 1.234463e-01 9.225871e-03 3.002257e-03 -2.585793e-02 2.382573e-02 -2.117686e-01
<VARIANCE> 25
 7.807925e+00 1.473587e+01 1.418137e+01 2.217208e+01 1.670440e+01 2.999674e+01 2.077083e+01 2.120909e+01 2.050530e+01 1.935226e+01 2.199401e+01 1.841039e+01 1.582742e-01 4.198194e-01 4.755783e-01 6.214762e-01 8.297442e-01 1.089190e+00 1.243951e+00 1.173937e+00 1.245566e+00 1.348906e+00 1.277669e+00 1.201772e+00 1.651660e-01
<GCONST> 7.622915e+01
<MIXTURE> 2 1.365607e-01
<MEAN> 25
 -5.138521e+00 2.429341e+00 -1.109855e+00 3.140779e+00 5.020564e+00 3.300783e+00 5.410661e+00 2.551285e+00 3.876800e+00 2.679307e+00 3.936140e+00 2.441068e+00 -1.843837e+00 -1.412560e+00 -9.730507e-01 -1.073511e+00 -1.261110e+00 -9.088554e-01 -7.504709e-01 -2.565460e-01 -7.896055e-02 -2.984468e-01 5.404817e-01 1.532130e-01 3.418138e+00
<VARIANCE> 25
 1.905801e+01 2.643041e+01 2.589933e+01 3.087285e+01 2.886565e+01 2.825636e+01 2.749949e+01 2.614151e+01 2.535194e+01 2.274834e+01 2.566890e+01 1.884402e+01 2.327835e+00 2.357152e+00 2.649295e+00 2.399305e+00 3.143124e+00 3.415918e+00 3.179015e+00 3.081812e+00 2.900886e+00 2.670751e+00 2.618981e+00 2.303866e+00 1.852799e+00
<GCONST> 9.734258e+01
<MIXTURE> 3 1.474144e-01
<MEAN> 25
 -2.242332e+00 7.178330e+00 2.916902e+00 4.245402e+00 -1.852453e+00 -5.669470e+00 -6.690017e-01 -6.357378e+00 -4.593313e+00 -4.219889e+00 -1.886667e+00 -1.418726e+00 -2.167316e-02 -1.471411e+00 1.416852e+00 -7.374772e-01 -3.446708e+00 -2.042995e+00 -1.927184e+00 -7.846000e-01 -1.061737e+00 -3.531724e-01 1.011372e+00 7.646271e-01 2.708059e+00
<VARIANCE> 25
 1.479596e+01 1.965117e+01 2.708582e+01 2.540007e+01 3.991989e+01 3.719954e+01 2.940149e+01 2.805128e+01 2.593520e+01 2.271902e+01 2.280118e+01 2.391208e+01 3.133392e+00 2.690640e+00 3.309859e+00 3.029216e+00 4.448779e+00 4.320908e+00 3.533600e+00 3.792691e+00 3.132452e+00 4.194363e+00 2.921818e+00 2.542840e+00 2.005753e+00
<GCONST> 1.001171e+02
<MIXTURE> 4 1.333397e-01
<MEAN> 25
 3.134194e+00 1.621193e+00 -2.844014e+00 -4.359961e+00 -1.524599e-01 -6.072175e+00 -1.014986e+01 -7.482520e+00 2.312862e+00 2.871166e+00 -3.079326e+00 -4.488258e+00 1.155036e+00 -2.847386e+00 -1.925342e+00 -2.841539e+00 -2.279000e+00 2.625265e-01 -3.170586e+00 2.221099e-01 2.637660e+00 1.071778e+00 4.567696e-01 -1.259775e+00 3.358278e+00
<VARIANCE> 25
 1.120637e+01 1.655902e+01 2.193709e+01 2.466478e+01 2.303038e+01 2.784414e+01 3.337917e+01 3.328465e+01 3.180940e+01 2.297993e+01 1.942507e+01 1.817207e+01 2.259455e+00 2.729828e+00 3.229296e+00 3.923006e+00 4.240097e+00 4.780433e+00 6.626679e+00 7.357053e+00 4.712607e+00 4.053000e+00 4.180037e+00 3.828974e+00 2.262523e+00
<GCONST> 1.011947e+02
<MIXTURE> 5 1.185293e-01
<MEAN> 25
 -6.808308e+00 1.238343e+00 -1.660858e+00 1.073302e+00 1.158628e+00 -1.274221e-01 1.768861e+00 -4.210836e-01 1.135969e+00 -5.614321e-01 2.880053e+00 8.908087e-01 1.531060e+00 -6.089049e-01 3.314618e-01 -1.734893e+00 -3.689256e+00 -3.683883e+00 -3.870015e+00 -1.915311e+00 -1.396368e+00 -1.248365e+00 -1.372934e+00 -8.987882e-01 4.133818e+00
<VARIANCE> 25
 1.373664e+01 3.311883e+01 3.400729e+01 3.597171e+01 3.439167e+01 3.893121e+01 3.798203e+01 3.407418e+01 2.992157e+01 2.465902e+01 3.310575e+01 2.081607e+01 2.625919e+00 3.423732e+00 5.152542e+00 4.787063e+00 5.225013e+00 4.179379e+00 5.146982e+00 4.775873e+00 5.398753e+00 4.495234e+00 3.977218e+00 3.615075e+00 3.579008e+00
<GCONST> 1.054980e+02
<MIXTURE> 6 9.911376e-02
<MEAN> 25
 3.532947e+00 -2.746895e+00 -6.185100e+00 -5.887856e+00 -4.637396e+00 -1.018762e+01 -8.664794e+00 1.635504e+00 3.349598e+00 -4.580135e+00 -6.465371e+00 -1.600010e+00 1.982004e-01 -4.356337e+00 -2.339676e+00 -3.714576e+00 3.568305e-01 1.037707e-01 -4.970559e-01 3.482778e+00 1.033619e+00 -6.585440e-01 -1.800324e+00 4.830701e-01 3.491468e+00
<VARIANCE> 25
 7.750050e+00 1.737228e+01 2.187479e+01 2.363218e+01 3.291160e+01 2.433209e+01 3.632070e+01 3.093302e+01 3.002805e+01 3.097479e+01 3.117952e+01 3.196778e+01 1.982556e+00 2.544590e+00 3.161743e+00 3.384930e+00 6.404279e+00 5.532817e+00 6.077430e+00 4.067210e+00 5.149795e+00 4.755084e+00 5.157745e+00 3.942578e+00 1.839123e+00
<GCONST> 1.021309e+02
<MIXTURE> 7 1.099230e-01
<MEAN> 25
 2.725692e+00 3.090180e+00 2.491093e+00 2.437215e+00 -5.191187e+00 -1.233953e+01 -6.498951e+00 -3.843259e+00 -8.479329e-01 -3.365619e+00 -2.771496e+00 8.808502e-01 1.530790e+00 -2.324453e+00 4.916766e-01 -9.945514e-01 -3.564971e+00 -2.052209e+00 -2.673647e+00 9.429294e-01 8.690141e-01 -1.062841e-01 8.034799e-01 4.338186e-01 2.224942e+00
<VARIANCE> 25
 7.829175e+00 1.735089e+01 1.701276e+01 1.742489e+01 3.529619e+01 1.888105e+01 2.432314e+01 2.037028e+01 2.658423e+01 1.993082e+01 2.123534e+01 1.792361e+01 2.342038e+00 2.274371e+00 2.957762e+00 2.938914e+00 4.214908e+00 4.177014e+00 4.767868e+00 4.413646e+00 4.338892e+00 3.934715e+00 4.288080e+00 3.283956e+00 1.420127e+00
<GCONST> 9.705521e+01
<MIXTURE> 8 9.229311e-02
<MEAN> 25
 -1.348116e+00 -2.099240e+00 9.061577e+00 -4.297173e-01 1.813558e+00 3.784848e+00 -4.263354e+00 -1.604693e+00 -1.077066e+00 -4.021825e+00 -2.050031e+00 -1.665721e+00 -1.445839e+00 -2.624693e+00 -1.552216e-01 -1.952043e+00 -6.499266e-01 -4.414414e-01 -3.066667e+00 -2.803525e-01 -2.219563e-01 -3.269088e-02 1.326071e+00 3.089573e-01 3.944965e+00
<VARIANCE> 25
 1.525884e+01 2.967402e+01 2.145037e+01 2.940058e+01 3.460155e+01 3.073623e+01 3.779169e+01 3.663857e+01 2.914593e+01 2.584999e+01 2.851701e+01 2.719701e+01 2.796829e+00 2.275684e+00 2.616645e+00 3.693231e+00 3.409395e+00 4.892064e+00 4.326060e+00 4.826538e+00 3.596659e+00 4.092872e+00 3.317502e+00 2.783961e+00 1.368768e+00
<GCONST> 1.011882e+02
<MIXTURE> 9 8.607741e-02
<MEAN> 25
 -9.920521e-02 3.146743e+00 3.802739e-01 1.317988e+00 -8.476418e+00 -9.291666e+00 -4.939230e+00 -5.754626e+00 -3.144166e+00 -4.987717e+00 7.500477e-01 -1.085423e+00 -2.289812e-01 -3.702058e+00 4.312857e-01 -3.418231e+00 -2.692686e+00 -2.457915e+00 -9.731247e-01 1.459265e+00 -3.419393e-01 1.150843e+00 -2.887873e-02 1.765162e+00 3.793488e+00
<VARIANCE> 25
 7.992683e+00 1.612421e+01 2.694606e+01 2.627838e+01 3.212490e+01 2.617424e+01 2.282983e+01 2.325686e+01 2.466129e+01 2.179387e+01 2.235269e+01 2.391681e+01 2.637079e+00 1.997791e+00 4.193951e+00 3.136196e+00 5.709090e+00 4.132883e+00 5.681986e+00 5.819801e+00 4.353116e+00 5.450094e+00 5.952553e+00 3.784089e+00 1.530192e+00
<GCONST> 1.005503e+02
<TRANSP> 5
 0.000000e+00 1.000000e+00 0.000000e+00 0.000000e+00 0.000000e+00
 0.000000e+00 5.865355e-01 4.134646e-01 0.000000e+00 0.000000e+00
 0.000000e+00 0.000000e+00 4.434507e-01 5.565493e-01 0.000000e+00
 0.000000e+00 0.000000e+00 0.000000e+00 4.659643e-01 5.340357e-01
 0.000000e+00 0.000000e+00 0.000000e+00 0.000000e+00 0.000000e+00
<ENDHMM>
~h "E"
<BEGINHMM>
<NUMSTATES> 5
<STATE> 2
<NUMMIXES> 9
<MIXTURE> 1 6.495193e-02
<MEAN> 25
 -3.296317e+00 2.256928e+00 1.303557e+00 4.736199e+00 3.885679e+00 4.702538e+00 8.134586e+00 5.172281e+00 4.805779e+00 3.789197e+00 2.667078e+00 3.880620e+00 1.291172e+00 -1.458925e+00 1.692215e+00 -2.575919e+00 -4.762171e+00 -2.918269e+00 -2.781170e+00 -1.416950e+00 -2.261487e+00 -1.067611e+00 -1.241750e+00 -1.613847e+00 4.541762e+00
<VARIANCE> 25
 1.193436e+01 2.308224e+01 2.474956e+01 3.449560e+01 6.980602e+01 4.051475e+01 2.807718e+01 2.951359e+01 3.554271e+01 3.303839e+01 3.207542e+01 2.126183e+01 2.736858e+00 3.651051e+00 3.356135e+00 7.092317e+00 8.396602e+00 6.597098e+00 5.647151e+00 4.877343e+00 4.897894e+00 5.300025e+00 4.304556e+00 3.118585e+00 3.999743e+00
<GCONST> 1.066173e+02
<MIXTURE> 2 1.303907e-01
<MEAN> 25
 4.363323e+00 -5.244874e+00 5.433784e+00 2.358461e-02 -1.575283e+01 -9.976050e+00 -6.360097e+00 -1.231998e+00 -1.510212e-01 -7.215693e+00 3.134449e+00 -6.206017e-01 1.185123e-01 -1.205842e+00 -5.907165e-02 -5.204149e-01 -1.534317e+00 -3.167053e-01 7.174244e-02 4.959147e-01 8.912307e-01 -3.729891e-01 9.876003e-01 -3.909896e-02 1.264697e+00
<VARIANCE> 25
 1.104982e+01 2.022987e+01 2.878518e+01 2.061587e+01 2.954858e+01 2.905922e+01 3.366811e+01 3.600853e+01 3.209455e+01 2.225658e+01 2.387415e+01 2.428634e+01 8.512414e-01 1.239161e+00 2.136776e+00 1.545463e+00 2.246408e+00 1.853972e+00 2.041193e+00 2.611740e+00 2.500865e+00 1.589684e+00 1.615697e+00 1.840508e+00 6.939993e-01
<GCONST> 9.098503e+01
<MIXTURE> 3 1.357014e-01
<MEAN> 25
 4.397822e+00 -8.552435e+00 -2.527033e+00 -6.627652e+00 -9.531583e+00 -5.688167e+00 -3.158018e+00 3.822852e+00 -6.051899e-02 -4.048493e+00 -4.416190e+00 -4.107580e+00 7.232908e-01 -2.556532e+00 -1.830451e+00 -9.172679e-01 4.294674e-01 8.035117e-01 5.391759e-01 1.776169e+00 4.453107e-01 -9.603859e-01 -1.422557e+00 -9.514982e-01 1.647368e+00
<VARIANCE> 25
 1.190640e+01 2.198988e+01 3.683796e+01 2.739233e+01 5.635966e+01 4.004410e+01 4.899076e+01 4.679030e+01 5.145511e+01 4.298314e+01 4.548958e+01 3.577198e+01 1.976939e+00 2.495295e+00 3.262043e+00 2.719747e+00 4.850510e+00 3.178553e+00 5.143138e+00 4.068497e+00 5.745657e+00 3.765718e+00 3.639321e+00 3.020055e+00 1.652133e+00
<GCONST> 1.045154e+02
<MIXTURE> 4 1.049512e-01
<MEAN> 25
 3.384118e+00 -8.534428e-01 4.807358e+00 1.390142e+00 -1.068035e+01 -9.316222e+00 -4.316850e+00 -2.024621e+00 -3.949679e+00 -5.123727e+00 -1.152714e+00 -1.315828e+00 3.178980e+00 -2.031600e+00 1.024042e+00 -5.702339e-01 -4.525063e+00 -2.377262e+00 -3.248390e+00 -3.659548e-01 -6.612955e-01 -1.891682e+00 9.205655e-01 -1.242670e+00 3.208302e+00
<VARIANCE> 25
 1.297649e+01 2.337576e+01 2.396025e+01 2.068487e+01 3.877926e+01 2.680451e+01 3.172506e+01 3.233297e+01 2.702133e+01 2.048508e+01 2.169140e+01 1.731438e+01 2.769459e+00 2.696695e+00 4.237831e+00 3.135219e+00 4.294062e+00 3.963598e+00 5.083698e+00 4.993875e+00 5.317545e+00 3.386002e+00 3.745871e+00 2.923130e+00 2.894619e+00
<GCONST> 1.010049e+02
<MIXTURE> 5 1.092624e-01
<MEAN> 25
 1.296160e+00 -1.540306e+00 9.112280e+00 -8.005767e+00 -1.503573e+01 -7.106414e+00 -4.738758e+00 -2.130011e+00 -5.242253e+00 3.833182e+00 1.765098e-01 -4.857062e-01 1.007924e-01 -4.562904e-01 -1.130356e-01 -4.286457e-01 -6.880203e-01 -2.814783e-01 2.581683e-01 4.370767e-01 2.081168e-01 7.797254e-01 2.487483e-01 2.861094e-01 5.643728e-01
<VARIANCE> 25
 1.067558e+01 2.206977e+01 3.411200e+01 3.811312e+01 2.686040e+01 3.778306e+01 4.690811e+01 5.422123e+01 5.201043e+01 5.257679e+01 3.910529e+01 3.256188e+01 5.895264e-01 1.357763e+00 1.662235e+00 1.707396e+00 1.859131e+00 1.845564e+00 2.640095e+00 2.302564e+00 2.634556e+00 2.752395e+00 2.145694e+00 1.536823e+00 7.157939e-01
<GCONST> 9.510447e+01
<MIXTURE> 6 9.787001e-02
<MEAN> 25
 1.470074e+00 -1.944803e-01 6.156157e+00 -7.448525e+00 -1.351316e+01 -7.494357e+00 -2.671757e+00 -4.764075e+00 -4.276138e+00 1.439502e+00 -1.493140e+00 -7.478812e-01 1.914100e+00 -2.164503e+00 1.561645e+00 -4.049899e+00 -3.939789e+00 -2.903582e+00 -2.151856e+00 -1.130203e+00 -2.740173e+00 2.338085e-02 -2.458319e+00 -1.112593e+00 3.780453e+00
<VARIANCE> 25
 1.083874e+01 2.941820e+01 2.985199e+01 4.416101e+01 2.866681e+01 3.531113e+01 3.866837e+01 5.395181e+01 4.114821e+01 4.019106e+01 2.693651e+01 2.373752e+01 2.693892e+00 3.262715e+00 3.695223e+00 4.463127e+00 5.921633e+00 4.567764e+00 5.195127e+00 5.927852e+00 4.461641e+00 5.690847e+00 4.543937e+00 3.699431e+00 5.435337e+00
<GCONST> 1.067809e+02
<MIXTURE> 7 1.253304e-01
<MEAN> 25
 7.854205e-01 -5.231133e+00 7.552174e+00 -1.247120e+01 -1.283818e+01 -8.662915e+00 -5.143920e-01 -4.128777e+00 -6.047112e+00 1.981598e+00 -4.071258e+00 -1.631190e+00 -3.697740e-01 -1.573815e+00 7.730670e-01 -2.368523e+00 -2.638253e-01 2.779225e-01 9.933056e-01 4.355571e-01 -3.995989e-01 7.863651e-01 -1.377261e+00 -7.005450e-01 1.579443e+00
<VARIANCE> 25
 9.302228e+00 2.027572e+01 2.404787e+01 2.654821e+01 2.367614e+01 3.603433e+01 3.521489e+01 4.678296e+01 3.996597e+01 4.193074e+01 3.822960e+01 3.777097e+01 1.477288e+00 2.656187e+00 2.186967e+00 2.867749e+00 2.469928e+00 3.014551e+00 4.720478e+00 4.381664e+00 3.845606e+00 3.975295e+00 3.251238e+00 3.099337e+00 1.056360e+00
<GCONST> 9.983295e+01
<MIXTURE> 8 1.101440e-01
<MEAN> 25
 3.917630e+00 -5.136355e+00 8.333889e+00 -2.382683e+00 -1.597891e+01 -7.539155e+00 -1.003855e+01 2.299478e+00 -6.717434e+00 -4.592017e+00 2.892691e+00 -2.195674e+00 7.242608e-01 -2.062091e+00 8.791837e-01 -1.414395e+00 -2.950795e+00 2.785104e-01 -1.965916e+00 1.806870e+00 -4.086422e-01 -1.123528e-02 1.538013e+00 -5.169933e-01 1.999780e+00
<VARIANCE> 25
 9.143863e+00 1.775521e+01 2.722779e+01 2.048442e+01 2.405051e+01 2.068027e+01 3.094858e+01 3.275190e+01 3.802383e+01 3.134759e+01 2.577420e+01 2.147744e+01 2.066563e+00 1.684649e+00 2.482858e+00 1.946565e+00 3.019209e+00 2.713175e+00 2.949159e+00 4.024899e+00 3.877837e+00 3.975624e+00 3.096149e+00 2.247795e+00 1.482204e+00
<GCONST> 9.636010e+01
<MIXTURE> 9 1.213871e-01
<MEAN> 25
 2.662067e+00 -7.402758e+00 3.325390e+00 -7.886667e+00 -1.385647e+01 -6.317955e+00 -2.468191e+00 3.525557e+00 -5.315356e+00 -6.652648e-01 -3.784515e+00 -3.302973e+00 -4.959220e-01 -3.228860e-01 2.071455e-01 -8.164175e-01 -4.751687e-01 6.430734e-01 7.520147e-01 3.839279e-01 -7.058277e-02 3.229627e-01 -3.308982e-01 -4.163096e-01 7.088973e-01
<VARIANCE> 25
 8.973843e+00 1.545204e+01 2.078622e+01 2.174576e+01 2.632758e+01 3.821574e+01 4.825521e+01 4.460458e+01 4.245971e+01 3.589936e+01 2.916283e+01 3.045659e+01 3.224714e-01 8.276039e-01 1.087704e+00 1.013736e+00 1.296402e+00 1.379083e+00 1.743148e+00 1.858219e+00 1.935827e+00 1.885154e+00 1.506006e+00 1.502166e+00 3.355486e-01
<GCONST> 8.725137e+01
<STATE> 3
<NUMMIXES> 9
<MIXTURE> 1 8.784666e-02
<MEAN> 25
 3.607375e+00 -1.424102e+01 -6.249314e+00 -6.577446e+00 -2.371047e+00 -1.114337e+00 6.138363e-01 1.944309e+00 -6.269792e+00 -8.748794e+00 -7.588546e+00 -1.888882e+00 4.799590e-01 -1.739308e+00 -1.305041e+00 1.249542e+00 1.967628e+00 1.048828e+00 -7.459053e-01 5.499598e-02 -2.674228e-01 -6.318589e-01 -3.158747e-01 1.266619e-01 3.464758e-01
<VARIANCE> 25
 9.738191e+00 2.864613e+01 2.648311e+01 3.471869e+01 5.623849e+01 3.847619e+01 5.083856e+01 4.393428e+01 4.560308e+01 3.740428e+01 3.095096e+01 2.834373e+01 7.196217e-01 2.009350e+00 1.992146e+00 2.586929e+00 3.242191e+00 2.750046e+00 3.866423e+00 3.546797e+00 3.398641e+00 3.840051e+00 2.764011e+00 2.623209e+00 7.254933e-01
<GCONST> 9.905510e+01
<MIXTURE> 2 9.418730e-02
<MEAN> 25
 5.527562e+00 -1.810054e+01 -9.246027e+00 -2.029202e+00 1.170586e+00 3.034737e+00 -3.643767e+00 2.010044e+00 -6.918554e+00 -7.955780e+00 -8.312421e+00 -2.852281e+00 1.396656e-01 -2.281327e-01 4.031646e-02 3.790632e-01 -2.047090e-01 2.004970e-01 -2.092108e-01 3.374547e-01 -2.114660e-01 1.843569e-01 9.264604e-03 -8.438794e-02 -1.871495e-02
<VARIANCE> 25
 8.860817e+00 1.825438e+01 2.233758e+01 3.747022e+01 3.714109e+01 2.951133e+01 4.607650e+01 3.063370e+01 3.133498e+01 3.232159e+01 2.867496e+01 2.638792e+01 2.321448e-01 5.592930e-01 6.801463e-01 9.576356e-01 1.458981e+00 1.105866e+00 1.424822e+00 1.735736e+00 1.452272e+00 1.248719e+00 1.157345e+00 1.073867e+00 1.781323e-01
<GCONST> 8.356513e+01
<MIXTURE> 3 1.107165e-01
<MEAN> 25
 5.885851e+00 -1.094097e+01 -4.911746e+00 -6.120035e+00 -8.568043e+00 -3.892060e+00 -4.217495e+00 6.515420e+00 4.603635e+00 -3.714221e+00 -5.107326e+00 -8.084239e+00 1.674583e-01 -5.344605e-01 -9.129059e-01 -1.705851e-01 8.807849e-01 8.027622e-01 3.412331e-01 1.486564e-01 2.354800e-01 -1.341817e-01 -6.554384e-01 -7.544153e-01 1.728201e-01
<VARIANCE> 25
 9.910268e+00 1.566999e+01 2.894521e+01 2.035489e+01 3.478166e+01 4.071395e+01 4.105469e+01 3.930676e+01 3.605876e+01 3.622720e+01 3.285097e+01 2.818579e+01 3.610223e-01 8.133687e-01 1.348359e+00 9.872180e-01 1.647415e+00 1.888022e+00 1.970076e+00 1.733078e+00 1.628814e+00 1.907180e+00 1.870000e+00 1.571066e+00 2.578712e-01
<GCONST> 8.829791e+01
<MIXTURE> 4 1.451414e-01
<MEAN> 25
 1.648913e+00 -3.897300e+00 9.123209e+00 -1.162214e+01 -1.608400e+01 -6.187387e+00 -3.908548e+00 -1.438292e+00 -7.415726e+00 6.857626e+00 -3.752335e+00 -1.205782e+00 8.435524e-02 3.896058e-01 1.546795e-01 3.979428e-01 -1.132695e-01 -3.784742e-02 -3.626699e-01 -4.518001e-01 -2.044859e-01 -2.956757e-02 2.610767e-02 1.120367e-01 -2.142968e-01
<VARIANCE> 25
 6.049986e+00 1.855987e+01 2.101484e+01 1.893032e+01 1.594947e+01 2.525883e+01 2.676178e+01 3.854596e+01 2.925956e+01 2.534065e+01 2.753836e+01 1.982007e+01 2.880336e-01 7.610478e-01 8.068313e-01 1.085484e+00 9.341973e-01 1.218249e+00 1.546604e+00 1.409263e+00 1.330714e+00 1.669931e+00 1.447315e+00 1.006697e+00 2.789606e-01
<GCONST> 8.165861e+01
<MIXTURE> 5 1.478175e-01
<MEAN> 25
 4.151670e+00 -5.890674e+00 4.398593e+00 -1.347525e+00 -1.536416e+01 -1.025476e+01 -5.496062e+00 3.514967e-01 -8.740263e-02 -5.674328e+00 2.089216e+00 -4.917132e-01 6.164688e-02 1.334852e-01 5.120852e-02 1.807037e-01 8.152465e-02 -9.021918e-02 -9.330244e-02 -6.459923e-02 -9.320186e-02 -2.349503e-02 7.496507e-02 3.338156e-02 -1.229799e-01
<VARIANCE> 25
 9.201520e+00 1.564169e+01 2.390219e+01 2.088096e+01 2.172618e+01 2.863117e+01 3.301428e+01 4.035267e+01 3.324849e+01 2.376732e+01 2.260918e+01 2.390478e+01 2.734226e-01 5.571468e-01 8.011903e-01 7.699621e-01 9.420563e-01 9.106820e-01 1.324006e+00 1.257667e+00 1.228681e+00 1.029016e+00 1.008683e+00 7.921470e-01 2.439357e-01
<GCONST> 8.031266e+01
<MIXTURE> 6 1.157598e-01
<MEAN> 25
 2.343020e+00 -3.660751e+00 1.096517e+01 -2.179595e+00 -1.940076e+01 -5.519555e+00 -8.746034e+00 -7.317367e-01 -7.336369e+00 -5.572283e+00 6.437860e+00 -3.107743e+00 3.658821e-01 -1.725557e-01 -4.010768e-01 4.571461e-01 2.669506e-01 -3.235130e-01 7.529988e-02 3.132749e-01 1.043976e-01 -1.875574e-01 -1.067113e-01 1.027839e-02 -9.901515e-02
<VARIANCE> 25
 8.696643e+00 1.851555e+01 2.213866e+01 1.959855e+01 1.809839e+01 2.370483e+01 3.064552e+01 3.198767e+01 3.262873e+01 3.548909e+01 1.788328e+01 1.939654e+01 3.382961e-01 7.916757e-01 1.136132e+00 1.361183e+00 1.348389e+00 1.356481e+00 1.296081e+00 1.558468e+00 1.621074e+00 1.480949e+00 1.382315e+00 1.217123e+00 4.008448e-01
<GCONST> 8.386121e+01
<MIXTURE> 7 8.772418e-02
<MEAN> 25
 -1.885496e-01 -8.172114e+00 6.561364e+00 -1.582662e+01 -9.764277e+00 -8.547689e+00 4.695103e+00 -4.263761e+00 -1.799580e+00 3.594174e-01 -3.967306e+00 -3.708821e+00 2.249618e-02 1.444620e-01 9.750289e-02 1.223026e-02 2.300558e-02 -1.154334e-01 -1.847649e-01 -3.695484e-01 -2.859405e-02 2.394087e-02 -7.469445e-03 2.503190e-01 -6.852622e-02
<VARIANCE> 25
 8.236797e+00 1.520553e+01 2.340948e+01 2.448080e+01 1.663851e+01 2.693362e+01 2.401100e+01 3.319126e+01 2.965402e+01 2.991578e+01 3.412221e+01 4.063339e+01 3.448041e-01 8.231144e-01 9.333019e-01 1.016639e+00 1.032960e+00 1.416111e+00 1.558863e+00 1.879848e+00 2.364793e+00 1.730698e+00 1.787597e+00 1.955209e+00 3.294439e-01
<GCONST> 8.563039e+01
<MIXTURE> 8 1.182658e-01
<MEAN> 25
